999 200
[UNK] -0.041258834 -0.030883241 -0.021184063 -0.002682291 -0.018187024 0.036749754 0.0017917864 0.012785617 0.028562736 0.012250803 -0.029607987 0.03065398 0.004390456 0.029058184 0.009678461 0.020457018 -0.025873197 -0.045556117 0.013939407 0.039755788 0.004646145 -0.020279516 -0.012014855 -0.038000427 -0.030843055 0.029677022 -0.04872035 0.006412469 -0.047788955 0.015144993 0.032375876 -0.03524529 -0.018497575 0.044466686 -0.042853057 -0.026365792 -0.03654288 -0.013302613 -0.018114246 0.029655565 0.0016038194 0.009018552 0.0066662915 0.048315953 0.021731045 -0.04308753 -0.038110267 0.046211053 0.023508798 0.020637605 0.048040632 0.02171911 -0.03069011 -0.0061996207 0.04166541 -0.04005562 -0.033943847 -0.03556185 -0.010026671 0.031067554 -0.009959888 0.028778385 0.021388147 -0.025591254 0.0033617727 0.016335074 0.029876899 0.015736189 -0.03311454 -0.034379542 -0.024649894 0.022920083 -0.034312762 -0.022392048 -0.0027769804 -0.03610488 0.0392089 -0.021592606 0.019969273 0.042520527 -0.035404205 0.035618845 -0.020485973 0.024797264 0.046484593 -0.04738257 -0.027206445 -0.029903507 0.0031223781 -0.021686828 0.036885392 0.03469528 0.03129256 0.023933355 -0.02498293 -0.01134982 -0.012332272 0.02643944 -0.047541954 -0.007688679 0.030993525 -0.02030238 -0.043968428 -0.04881754 -0.0027690306 0.01472709 -0.043061566 0.0022372492 -0.043312073 -0.036267795 -0.039209615 0.020940576 -0.02193663 0.026206698 0.021364618 -0.016900562 -0.042613756 0.046821367 -0.037787713 0.00091551617 0.04629356 0.031097922 -0.04197848 0.04295112 0.04488505 -0.040821325 -0.045736887 0.0037612692 0.017670501 0.012725953 -0.015813254 -0.016768645 -0.033509053 0.04081596 -0.036623884 -0.009139787 0.019580495 0.016869787 -0.0045541637 -0.014154933 -0.03347378 0.02755053 0.04641508 -0.0035942197 0.01131288 -0.008931149 -0.02111566 -0.012115918 -0.032236777 -0.036904715 0.008617818 -0.0015045293 -0.039238025 0.025495235 -0.023307933 0.049847614 -0.011889052 0.018332768 0.03461549 -0.035868846 0.045805838 0.02631874 0.013090063 0.011763118 0.02964535 -0.00094240904 -0.0014281981 0.026706304 -0.022239733 0.024394784 0.0379085 0.01929294 0.04857323 0.0019880757 -0.04482583 -0.0062178485 -0.015595414 0.0013439879 -0.012263846 -0.03407042 0.015557062 0.024903607 -0.0052559264 0.031193648 -0.022732675 0.04985683 0.010694016 -0.03673167 0.047759686 -0.032931946 -0.006409537 0.01164297 -0.0022499785 0.0058222525 -0.030396068 -0.02358811 0.005105842 -0.04843259 -0.0407946 0.045062948
pron -0.063583106 -0.011549844 -0.1655433 -0.39496067 -0.20680971 0.4112262 0.060542226 0.11213264 0.005041516 0.26528126 -0.2596839 0.3539826 0.275903 0.6215182 -0.9522655 -0.4029934 0.32513654 -0.60939085 0.28932872 0.10993809 -0.41595384 -0.5893752 0.20661658 0.006348202 -0.32364306 0.07160943 0.082919806 0.20154475 0.097006924 0.41195154 0.4760721 -0.6824682 -0.33501786 -0.06621378 0.38978076 0.12343735 -0.082845025 -0.07643199 0.19646257 0.26925564 -0.22969617 -0.3758571 -0.09901078 0.73229367 -0.4339124 -0.6070584 -0.16073081 -0.16928686 -0.017147174 0.23621485 -0.6227909 0.15618451 0.27871203 -0.07386807 -0.11684592 -0.34148955 0.45451656 -0.15054847 0.07831576 0.07012911 0.37055582 0.13877802 0.20890968 -0.053786363 -0.18980786 -0.31270623 -0.017320413 0.24352139 -0.34519622 -0.11804504 0.45411307 0.115359366 -0.4636093 -0.1591349 0.08827194 -0.42768565 0.3671354 0.023903813 0.021008492 0.31127757 -0.13980384 0.33249563 -0.33433744 0.06049123 0.491072 0.333176 0.2471934 -0.21463236 -0.7982662 -0.21244833 -0.07102417 0.16022445 0.058210127 0.53264904 -0.015547476 0.20585722 0.21445613 -0.5008483 -0.031092472 0.24735104 0.11647978 -0.44538713 0.059919138 -0.2726741 -0.04746346 0.22003087 -0.63555074 0.12349066 -0.47572994 -0.1039337 0.11458807 0.3248925 0.1487674 0.1251772 -0.60185623 -0.085951686 -0.31264856 0.21427749 -0.21382175 0.07780122 -0.5161119 -0.65167576 0.5198662 -0.16773196 0.5848961 0.37425107 -1.0861429 0.5014283 -0.12669365 0.5013686 -0.38511202 -0.5291601 0.056676302 0.014015887 -0.37871924 0.30202997 0.5660296 0.054512344 -0.08474469 0.32926494 -0.17362647 1.0354985 0.09820276 -0.4830043 -0.05470361 0.12871198 0.5795533 -0.3342595 -0.58210254 0.06700491 0.036931355 0.55961865 -0.07331467 0.17720562 -0.12575662 -0.030763775 -0.23465286 0.2383799 0.18808293 -0.7261976 0.11624017 -0.06422231 -0.76780987 0.09854087 -0.07862114 0.41562423 0.16662073 0.40677023 -0.010765215 0.0659394 -0.5108517 0.77748287 0.05103398 -0.10020222 -0.100934654 0.2836738 0.6554589 0.261377 -0.41811514 0.14606065 0.32312864 0.44552082 -0.05661477 -0.61115515 -0.4102623 -0.11460945 -0.015621706 -0.2767988 -0.25761586 0.40861577 0.066395655 -0.21675096 0.44602644 -0.54109037 0.034839727 0.91760826 -0.23468177 -0.110190004 0.4778892 0.13761897
use -0.35599902 -0.49701455 0.20341142 -0.3489972 -0.7331561 0.18249542 0.6320015 -0.12381906 0.37217158 0.6860037 -0.025129423 0.5439971 0.200294 -0.28164637 -0.5842242 0.63968736 0.24966364 0.5579662 0.016879179 0.063667625 -0.5388918 0.06769437 -0.16868523 0.020553742 0.3404951 0.4878322 0.5581875 0.18937474 -0.58637947 0.08850566 -0.04457515 0.8407591 -0.42604783 -0.34971642 0.32854584 -0.13854921 0.24653023 0.18179184 0.0655377 0.06454514 -0.18516412 0.52115315 0.7770016 0.77609116 0.22551093 0.16263783 0.1689317 0.38264748 0.1941865 0.067516 -0.20960945 -0.20370966 -0.20884043 0.41179973 -0.57687396 0.16208631 -0.14649254 0.25040466 0.24337818 0.09408593 0.98055875 -0.007454912 0.46213025 -0.57480115 -0.17782708 -0.28478605 0.2524665 -0.3512687 0.20261286 0.21013317 0.2581296 -0.58953685 -0.1556551 0.36549947 -0.24286309 0.20397994 -0.43217337 0.39431703 0.50393236 -0.11274048 -0.22703305 -0.11668969 -0.640263 -0.2639525 -0.7302637 0.15819204 -0.45337814 -0.09453407 0.44727412 -0.11913197 0.7656552 0.460598 0.3282179 -0.3203971 0.28367603 0.6741545 -0.23009327 0.88396466 -0.34803015 0.50447196 -0.0047008833 0.12249684 -0.71436536 0.44164664 -0.20601626 -0.19438231 0.52703875 0.0052300803 0.36804873 -0.13143225 -0.9327901 0.11785976 -0.086698264 -0.3489082 -0.23114872 0.7571802 0.23572826 0.13029668 0.70695704 -0.010338118 -0.26706934 0.4932075 -0.40003088 -0.5342117 0.0007970246 0.25474587 -0.12896176 0.09353915 -0.53838867 -0.20304276 -0.2282016 -0.19529703 -0.06786262 0.029644158 0.3276414 0.42855045 -0.54970944 -0.106863655 -0.78177214 -0.040164754 -0.35891134 1.0846769 0.12346572 0.47059387 -0.5580145 0.22586162 0.026345693 -0.089429624 0.11177438 -0.46272424 -0.070000306 -0.37811586 -0.18302193 0.42700028 -0.016776398 0.3292143 -0.07660897 -0.3560972 -0.40730232 0.065457955 -0.28261817 0.29389778 0.21211681 0.16300642 0.020147689 0.69275683 0.019618213 -0.682577 0.07821505 0.15435143 -0.07579607 0.09707804 -0.16751042 -0.10383192 0.14446 0.43582904 -0.7608802 -0.2760914 -0.2399515 0.6194539 -0.16527942 -0.11036412 -0.07459598 -0.07614215 -0.14967771 -0.44719043 -0.42583373 -0.17005335 -0.021955732 0.2739463 0.38324705 -0.46579567 -0.30560672 0.575865 0.26969686 0.8680618 0.30232447 -0.28226405 0.1555621 -0.36612207
high -1.0400909 -0.629199 -0.021639109 0.46627474 0.5703426 -0.22521137 0.6242089 0.44338956 0.059368018 0.14374168 0.23488662 0.33651534 0.013210792 -0.15559894 -0.4033042 0.16358602 -0.2333003 0.32170528 0.05479516 -0.3954219 0.10331581 0.22271585 0.10357868 -0.55306375 0.33296683 0.46635276 0.41447398 0.04660218 -0.13133882 0.20428418 -0.0903901 0.38386634 0.21271594 -0.5468155 -0.42911315 0.47878885 0.9244267 0.24010055 -0.7278356 0.06691505 -0.05108072 0.054245368 9.2077185e-05 -0.49427676 0.21907659 -0.49864715 0.10473646 0.20312323 0.67076004 0.52529484 -0.15312609 -0.5333961 0.65929437 -0.00064872764 0.10493289 -0.27833468 0.36324507 -0.1421549 -0.050335824 0.29022917 -0.11628925 -0.40841484 0.1305053 0.37281334 0.8385766 0.47035775 -0.3063864 -0.008271437 0.27149683 -0.109803006 0.055574793 0.30369952 0.3994101 -0.43718398 -0.13238932 0.13621111 0.049592264 0.6301914 0.51753986 0.13716248 0.58319175 -0.35735232 0.3471664 -0.2975629 0.5236178 -0.005524314 0.62304354 0.50576377 -0.21698865 0.15043196 0.3092973 -0.37573275 0.8094643 -0.31697327 0.339312 -0.6123958 0.08306302 0.33634758 0.7766381 -0.62385786 -0.020269992 0.02061874 -0.88436055 0.014483614 -0.81586665 0.21173492 -0.116105154 0.18987162 0.7922721 0.69168526 -0.34316027 -0.65134513 -0.008057652 -0.30485588 0.22107878 0.24427845 -0.23960714 0.37715638 0.3184593 -0.19048265 0.100227326 -0.31154662 -0.13084176 0.509688 0.0502587 -0.6707464 -0.0148544125 0.4645057 -0.18180653 -0.46541008 -0.7425878 -0.09425156 0.31297085 -0.01738565 -0.08832416 0.50090474 -0.20135748 -0.15634012 -0.24166566 0.705422 -0.2560476 1.4659644 0.2519754 -0.22235014 0.53032607 -0.025793258 -0.30485803 -0.09770926 -0.926258 -0.3110401 0.5318368 0.5603838 -0.12917653 -0.71516013 0.34969148 0.17750338 0.5305918 -0.20410578 0.4159029 -0.00025636633 -0.27162817 -0.41153663 0.0013102656 0.05206263 -0.06330818 -0.025556352 -0.45191103 -0.47283888 -0.24448499 -0.42785403 0.19570547 0.14847642 0.008647761 -0.11537452 0.004041149 0.38180417 0.9142037 0.3049096 -0.49930605 -0.83195776 -0.19403923 0.27487165 0.07427685 -0.0737077 -0.574873 0.24727544 0.347609 0.1646906 0.08148254 -0.1911539 0.68714213 0.02031346 0.10126058 0.8656006 -0.0021570744 -0.388519 -0.045519292 -0.38110623 -0.44418833 0.10925986
study 0.5953079 0.6360819 -0.33827338 0.3624252 -0.086911865 0.34414557 -0.31987137 -0.30592686 -0.012078898 0.30905265 -0.13812263 0.3697483 -1.3447603 0.3326885 -0.5247288 0.050801277 -0.31352893 0.25090802 -0.13884474 -0.07677309 0.29060063 -0.008647146 -0.57588625 -0.1448878 0.21039288 0.7297767 -0.027551927 0.37113228 0.63860965 0.2530021 -0.20351064 0.82165444 0.82590467 -0.2084452 -0.6901594 -0.37941566 0.3932661 0.094041705 -0.4074316 -0.06442279 0.07823882 0.040688723 -0.13874501 0.615646 -0.77516437 -0.37209603 0.08943177 -0.004782808 -0.7693721 -0.23089916 1.2740806 -0.22593643 0.099828765 0.13251713 0.61526126 -0.12852556 0.8770814 0.26295763 -0.35191038 -0.84239167 -0.60637885 -0.032695133 0.91025555 0.92316455 -0.3316991 0.26506066 0.64436156 0.6185082 0.24384798 0.17463274 -0.7906972 -0.10311099 -0.4760957 0.6317082 -0.16136295 0.28220642 0.15998405 -0.9804118 0.25577873 0.52513677 -1.0842017 0.39768663 0.672265 -0.16712262 -0.9429792 -0.62015265 -0.7010654 0.28896213 -0.13709067 0.21990956 1.24502 -0.043331232 -0.08058788 -0.431471 -0.8358998 -0.027905818 -0.124555126 1.3587054 -0.12632327 -0.031274565 0.041816577 0.35661876 -0.36902502 -0.07956243 0.29204836 -0.466215 -0.15690245 0.11982165 -0.37089926 0.08381484 -0.11586337 -0.4809396 0.72251886 0.59225243 -0.3511803 0.28868392 -0.3943179 -0.36817703 0.3025514 0.97295487 0.46425912 0.026618859 0.16366345 -0.22068448 0.35590634 0.24117586 -0.0021140971 0.34824798 0.6874673 -0.43925196 0.6435251 -0.5428271 0.13761096 -0.4795189 0.13234667 -0.22758356 -0.3363808 0.19931814 -0.44841072 0.55567306 -0.57580614 0.8386677 0.10493291 -0.17349556 -0.45197505 0.0030354606 0.8871767 0.19438326 0.31606126 -0.017764125 -0.10946662 0.38415965 -0.36919177 0.27744898 0.7221106 0.11857976 0.24217167 0.21711871 0.52193487 0.33504078 -0.2821927 0.40332627 -0.019234117 -0.5782968 -0.7407667 0.10408222 -0.5848175 -0.19070219 -0.63281965 -0.76046914 -0.22397304 -0.1440148 0.063945346 0.28387937 0.37529138 -0.0490921 -0.11386742 0.19365726 -0.3947299 0.16907743 -0.5310056 -0.034796968 -0.97014725 -0.013923136 0.11030901 0.95375776 -0.92164534 -0.22709034 -0.70868534 -0.2651153 -0.6700229 -0.051493086 0.08817931 -0.5003428 -0.7957728 -0.6013077 0.1676135 0.048171077 0.12228699 0.073099785
increase 0.3010737 0.37686944 0.032800213 -0.371674 0.31270626 0.004490252 -0.18997231 0.13844371 0.12329574 0.407588 0.6470112 -0.027195042 -0.4232756 0.7424708 -1.0857508 -0.4526617 0.26760092 0.18978503 -0.84920466 -0.17171833 -0.092758566 0.29727066 0.1623684 -0.33552113 -0.38826817 -0.005249508 -0.1472973 -0.3556613 0.39458835 0.0059610237 -0.32509983 -1.1811333 0.29465434 -0.49023873 0.514194 0.18931337 0.4710056 0.050645385 -1.3701141 -0.15539643 -0.96440756 0.7253747 0.52392423 -0.00012742681 -0.1549038 -0.016066603 0.5077011 -0.076784424 0.08431481 0.2616195 -0.14910765 0.25211608 0.42823172 -0.44769406 -0.8992636 0.049828023 0.45972344 -0.017907692 -0.5083105 0.8213914 0.24317002 -0.28200045 0.1564691 0.4558719 -0.7406715 0.33670703 -0.32158998 0.6710542 -0.05882206 0.32496276 -1.0164489 0.12930655 0.48808283 -0.45835853 0.2924553 0.0890782 0.32225415 -0.11404116 0.4562882 -0.32806113 0.34690684 0.15872298 -0.09614599 0.46252787 0.43302798 0.46840447 0.36429593 -0.059669442 -0.33377632 0.68067485 0.9237468 -0.105952226 0.21226071 -0.64468575 -0.340433 0.05603251 -0.36155182 0.0031605216 0.2850915 -1.0087159 -0.23182863 0.47813958 -0.80177575 0.75818986 0.74949956 -0.0634707 -0.71513766 -0.24384005 0.67662156 0.7625251 0.60020095 -0.9149356 -0.1060337 -0.023222918 0.24939758 0.058554433 0.02057654 1.0739349 0.84101874 -0.5905801 0.0949148 -0.3216824 0.18473856 0.1713185 0.9718801 0.4080809 0.27107728 1.4896717 -0.18905926 -0.23908778 -0.7909974 0.3586999 0.12642092 0.4810689 -0.37138787 -0.42077696 0.118781365 -0.08314433 -0.4466538 -0.315635 -0.45105273 1.0147048 0.6192197 0.41732314 0.59453386 0.8442279 -0.20483486 -0.18166354 0.07274905 -0.2889951 0.5305841 0.25448704 -0.0062004 -0.2302379 -0.1490685 0.3549732 0.39615348 -0.5862245 -0.3663423 0.35485134 -0.34965464 1.4168521 -0.0020703585 -0.077347286 0.5178458 -0.11487177 0.0036308346 -0.64163846 -0.0039301757 0.8081657 0.023146637 -0.03865196 -0.41273862 0.14337415 0.023728643 0.022302456 0.6275594 0.054077502 0.37347955 0.36593238 -0.3010343 0.34257904 0.029988725 -0.09724087 -0.41625944 0.30267885 0.33178893 -0.97109735 -0.1262074 0.23258188 -0.23435067 -0.33311215 0.32205284 0.3589339 -0.31851673 0.07397534 0.18679553 0.3083567 0.1521317 0.116365775
show -0.49525538 -0.45254585 0.59157246 0.48565912 0.24670094 0.20882308 0.75795853 0.0112113245 -0.111024626 -0.5473977 -0.367997 -0.9339685 0.30776924 -1.0909243 -0.11019972 0.16003694 -0.20920482 0.42503455 0.2537543 -0.031575046 0.18958758 -0.11768167 0.7516231 0.21748659 -0.707578 0.13304535 -0.005808958 -0.053669922 -0.27165967 0.41982177 0.1496834 0.5858445 -0.4237184 -1.4258158 0.13318814 -0.08959977 0.13307177 -0.9164182 -1.1794116 -0.0827738 0.85517263 -0.6535533 0.6219298 -0.13261281 -0.66696584 -0.14389716 -0.5247314 0.44400412 0.69580793 1.0413324 0.4751983 -0.049981344 -0.23885739 0.27930576 -0.48324758 0.5639995 0.17743005 0.4005105 -0.6548195 -0.25949463 0.2623119 -0.16177952 0.37833023 0.038814854 -0.4038209 -0.17793721 0.1844466 -0.21434356 0.42207822 -0.7736144 -0.26649824 0.35160068 0.27078187 0.6360133 -0.29316103 0.37834254 0.067480326 0.44946375 -0.24459596 -0.41585216 0.20550221 -0.6488093 0.023133023 -0.6406649 -0.95753616 0.6011589 -0.5288634 0.45608675 0.13694367 -1.3762014 0.7160944 -0.15627952 0.11088061 -0.43766832 -0.7377606 -0.26090184 0.76997447 1.1964328 0.5006758 -1.2323961 -0.18453297 0.14523238 0.008329872 0.7042912 0.22028476 0.27329084 -0.09446969 0.36398175 -0.11977604 -0.36460084 0.3849595 0.62222785 0.17271118 0.21773434 -0.35597998 0.23884554 -0.46756402 -0.065580025 -0.060341388 0.87108827 -0.09248251 0.19426224 0.3777703 -0.076093264 -0.19619402 1.4706683 0.121031865 -0.017951787 0.92814785 -0.80986774 -0.268946 -1.1909709 -0.49351642 -0.09513221 0.23956531 0.28555617 0.10752601 -0.5226264 0.19232482 0.19513957 0.6214961 0.45027798 -0.20904195 1.0706452 -0.028178455 0.09512958 -0.07550292 -0.5336239 0.1585193 -0.7805393 -0.1271026 -0.5569066 -0.7366619 0.8271046 -0.009391615 -0.23233905 0.040615708 0.5394612 0.42626768 0.28733498 -0.67673224 0.1634831 -0.37082738 -0.40023327 0.3300338 -0.5556303 -0.35342288 -0.5517657 -0.03548044 0.23894896 0.10755079 -0.21583052 -0.6095534 0.39200455 0.43796006 0.31960496 0.573096 -0.022032447 -0.6017942 -0.119676 0.2831865 -0.0017552762 -0.06405331 0.28347018 -1.0092064 0.13300504 -0.11244916 0.8453591 0.17723167 -0.2204037 -0.20105481 0.116809465 -0.19575739 -0.32116112 -0.597334 0.9261581 -0.18624142 1.063219 -0.0637536 -0.27622208
n -0.016907115 0.2267875 0.40250486 0.40279895 -0.6528023 -0.2950889 0.2532347 -0.2725058 -0.030813625 -0.67458665 -0.08200702 -0.6110082 -0.2982442 0.7348779 0.05891315 -0.18042992 -0.28773305 -0.45377806 0.030531716 0.017831108 -0.144695 0.8337787 0.08365035 1.0105511 0.67185646 -0.13036343 -0.059175022 -0.25579676 -0.3833605 0.3987264 -0.07352022 0.54504275 0.5177425 0.7300622 -0.89757645 0.28602967 0.7192872 -0.12670717 -0.9645323 0.5960933 -0.23602025 -0.18190822 1.1133153 -0.3901977 -0.4319988 -0.6975042 -0.39894974 -0.43634182 0.080234714 0.1836697 0.41081122 -0.30300245 -0.7874469 0.35254124 -0.015061829 -0.29014128 1.7018249 0.2291142 -0.13667741 0.9318167 0.4356037 -0.6089337 0.7051464 0.16280167 0.08928871 -0.33877018 0.88122153 -0.06372542 -0.15799114 -1.2235858 -0.14402898 0.43515903 -0.31297186 0.6494712 -0.25746673 0.64369047 0.043550447 -0.101324074 0.5670828 -0.7365657 -0.05640563 -1.0385715 0.18478677 0.044024803 0.3144346 0.327656 0.4288834 -0.27524906 -0.06294673 -0.98468465 -0.6480904 -0.003253662 0.028912509 -0.4794497 0.09984742 0.41239458 -0.81855196 -0.1947676 -0.07494809 -1.5906843 0.041137982 1.1085303 -0.77786994 -0.21981414 -0.04168442 -0.59183306 0.12397698 -0.6591307 0.54687285 -0.10655497 0.21180135 -0.18619418 0.07343478 -0.070570916 0.39733204 -1.341599 0.8945034 0.7342804 0.8979353 -0.8665313 -0.2648494 -0.065708615 -0.7417326 1.9377849 -0.387406 0.5315269 -0.34004226 0.3051135 -1.1408724 0.7614077 0.18833552 -1.1137367 0.0864775 -0.463178 0.2644179 0.76784265 1.2478031 0.31871802 -0.86207074 -0.5808611 0.9461958 0.3001124 0.4028092 -0.3531109 -0.38797078 -0.16010343 1.0736057 0.047729768 -0.09362686 -1.1031543 -0.6301221 0.41603383 -0.009353045 -0.35683826 0.3189891 -1.0741376 1.12871 0.4780409 0.1464444 -0.120554484 -0.6812446 0.5288165 -0.23937768 0.07497316 0.43283078 0.36060768 0.14150907 -0.44224334 -0.52481204 -0.15702242 -0.42808563 -0.16471735 0.075040534 0.20185247 0.35595715 0.01837425 0.09885441 -0.27313313 0.27162737 0.7877095 -0.55041075 -0.52172405 0.2679897 0.10591538 0.019031825 0.3173395 1.3603852 -0.43596497 -0.037167843 0.13319845 0.2098489 -0.0695863 -1.1796764 -0.2764807 0.41555917 0.32166934 0.7369566 -0.23359841 0.5053822 -0.36115256
model -0.1453487 0.06541186 0.20657495 0.14239855 -0.24599193 0.200691 0.058846917 -0.021475676 0.17738292 -0.19643767 -0.6246007 0.28679213 0.2918123 0.15211251 -0.58101475 0.45928985 -0.02865852 -0.43593428 0.1183014 -0.41795516 0.58176166 -0.07009477 0.37088344 -0.5832518 0.050934304 -0.4282873 -0.010910807 0.06633865 -0.5177575 0.2119122 -0.20557134 -0.23688848 0.07751306 -0.37331632 -0.2143294 -0.51185083 0.6669669 0.50892395 -0.1846959 -0.3893586 -0.677002 -0.021586837 -0.064203426 -0.1967183 0.044884242 -0.059346292 -0.30107218 -0.19905284 -0.022176731 0.030588372 -0.086677074 -0.7736842 -0.85582733 -0.30578628 0.15338108 -0.15837543 -0.43274897 -0.38268515 0.033822816 -0.30717006 0.057268918 -0.51126903 0.4176236 0.24603386 -0.14868428 -0.15936063 -0.0011098059 -0.49549758 0.8951533 -0.3096661 -1.0678612 -0.79545605 -0.5936943 0.7981155 0.06361965 -0.50438267 -0.4701583 -0.18563764 0.16287032 0.21781959 0.109606504 -0.10485474 -0.5051357 0.39618155 -0.1458462 0.22126944 0.8920524 0.25060526 0.29090473 -0.38936707 0.30959502 -0.23578438 0.019800873 -0.10846799 -0.5406225 -0.35300207 0.048726328 1.297299 0.3907624 0.31049928 0.69451725 -0.63068646 0.52955335 -0.6300059 -0.2062855 0.101496555 0.017401757 -0.26065543 0.4383407 -0.19212031 0.04199957 0.1638259 -0.23937246 -0.31730497 -0.14492135 -0.005766065 0.046313137 0.38100484 0.16506118 -0.4466437 0.06695566 0.11639998 -0.6119578 0.13846083 -0.09932472 -0.5645014 -0.8915405 0.19023919 0.16733368 -0.14954805 0.11037285 -0.4231148 -0.13052358 -0.1338605 0.20217392 0.47140482 0.23058763 0.9310232 -0.4532553 0.8946733 0.13161674 0.5400084 0.28062677 0.34302577 -0.14911294 0.20345418 0.44910046 -0.17167932 0.4046774 0.007567135 -0.14073917 0.090471625 -0.21928066 0.24636272 -0.11348532 -0.3332192 -0.20090628 -0.30579564 0.09920173 -0.80239445 0.38799202 0.29168114 -0.49317586 -0.5545079 -0.05323297 -0.42350078 0.4887225 -0.26942152 -0.5411458 -0.19830087 -0.16879293 -0.09398131 0.37954277 0.22805202 -0.1421426 -0.0035742437 0.5613359 0.22833605 0.22381218 0.33741236 -0.24396831 0.0069410955 0.22959282 0.832754 0.04032527 -0.25027454 0.04818391 0.19523032 0.76730275 0.5658958 0.15008022 0.29856625 -0.32397702 -0.087229155 -0.16237743 0.565854 -0.15787332 -0.69804883 -0.20696278 -0.05540268
r -0.43207073 -0.2539668 1.0034232 0.26085007 -0.4806739 -0.060445257 0.20336288 0.46352142 -0.52234894 0.1842049 -0.48640162 0.052096218 -0.3710326 -0.38777214 0.4370357 -0.009845654 -0.10415694 0.50234336 0.8639188 -0.96668684 0.058361832 -0.3526348 0.55860806 0.4593518 0.33698294 0.37698188 -0.9843273 0.81265974 -0.1594152 0.75129575 -0.82664084 0.12854172 0.05785504 -0.18807605 0.25047365 0.62523395 0.91011393 0.027923426 -0.5727476 0.36032835 -0.84143335 -0.34262693 0.014784576 -0.26534972 -0.21006007 -0.52348214 0.20647843 -0.6441536 0.26320934 0.41724384 -0.19081712 -0.22863083 -0.6072724 0.51750994 -0.037015248 -0.76444596 0.47886172 0.04282688 0.75999385 -0.7259995 -0.19656499 -1.2083576 -0.9717771 -0.3025136 -0.06777657 -0.22218452 -0.14577012 -0.69022125 -0.08134918 -1.0885811 0.81650865 -0.37755418 0.21191941 0.9627598 -0.8336308 -0.59875333 0.21585491 0.12378326 0.04414095 -0.26632094 -0.21708153 -0.33752894 -0.0578941 0.7709245 0.36449653 0.3697945 -0.22921787 0.070923984 0.71744573 0.037239157 -0.13460176 0.9416112 0.22894475 -0.49472156 0.16975453 -0.45190892 0.07480467 0.22341171 -1.0795777 -0.6180055 -0.09507227 0.27987236 -0.4548396 0.36678004 1.1732187 -0.8216133 0.68407977 0.62738144 -0.62600636 -0.91758525 0.13924503 0.7782941 0.23589194 -0.7395488 -0.3557535 0.57991725 0.024692306 0.3232964 1.1624902 -0.065680504 -0.40248367 0.8164899 -0.28792328 0.7507197 0.56745815 0.18442577 0.35242218 -0.02169577 0.10003652 0.40277895 0.9335599 -0.02552814 -0.846836 -0.49715215 -0.19908354 0.42936558 0.5332218 0.23183104 0.6193017 0.15710592 0.7272877 0.41281444 0.72753614 1.433573 0.0856676 0.4891514 1.2662928 0.20158048 -0.7665038 -0.03293226 0.29344743 0.6135834 -0.2807963 -0.26139346 -0.0038056485 1.0224599 0.8327777 0.2868201 -0.4011209 -0.32650352 0.54254884 -0.4897022 0.0026117158 -0.950849 0.491855 0.15145579 0.48759 0.5428062 -0.38243926 -0.2928905 -0.9028583 0.46779072 0.49865317 0.21244161 0.7924186 0.3192673 0.52066964 -0.29430896 -0.048046038 0.1387288 0.98088896 0.9146017 -0.29916844 -0.48456663 0.5175581 -0.67813873 0.15445292 0.07177753 0.653015 -0.44337004 -0.4531013 0.35813546 -0.397513 -0.40187508 -0.84667265 -0.22242019 0.47724178 0.1187409 0.606815 -0.4961244
time -0.24747373 0.18521805 -0.14418364 0.063992895 -0.0073416373 0.3120308 -0.22123785 0.3063776 0.3361373 0.7402213 -0.0095259845 0.20738842 0.22075567 0.5849568 -0.30796456 0.10138512 -0.052400615 -0.77639043 -0.025947079 -0.28246993 -0.17590357 -0.007542066 0.17432359 -0.34990388 0.17432234 0.11455846 0.07614057 0.35431024 0.60155606 0.21622269 -0.27306873 0.07851726 -0.2076386 0.24929838 -0.15420006 0.4533305 0.73229235 0.06249378 -0.22412652 0.11480425 -0.87052894 0.022004448 -0.18373841 -0.23624025 -0.3541052 -0.4918317 0.40028012 -0.21575202 0.07358211 0.48947796 0.06581206 0.16029587 -0.13249075 -0.091675244 -0.11387291 -0.15299028 -0.103600495 -0.4536114 0.39397275 0.11817436 0.1896837 0.08867674 0.33736882 0.5285119 0.02850473 0.124756284 0.11579325 0.3495714 0.10139866 -0.20217164 0.20016511 -0.41416794 0.29993275 -0.54531884 0.510718 -0.16989069 -0.06533769 -0.20266661 -0.5304697 0.36498392 -0.095831014 -0.27935168 0.4508558 0.15435489 0.1814979 0.2466175 -0.69472814 0.44103903 -0.11457552 -0.21430098 -0.56934005 -0.052648973 0.04243238 -0.060558546 -0.17414722 -0.29541177 -0.6075788 -0.0020537942 -0.34708637 -0.4693274 -0.34580684 0.47926313 -0.66188395 0.27543545 0.4004224 0.029428462 0.29455835 0.2160923 -0.16919033 -0.39924383 -0.111750394 -0.2645336 0.12682196 0.35838583 0.056825146 -0.042132463 -0.1221578 0.97924715 0.2861759 0.13175076 -0.5128284 0.54630244 -0.18778452 0.52300745 -0.23329884 -0.48708406 0.0030055048 -0.3128322 0.21429105 -0.044535592 0.13033032 -0.3740625 0.11007364 0.6343828 0.117714465 -0.0045226687 0.35783052 -0.113902226 -0.7007637 -0.18798006 0.7742111 0.8374343 -0.051070493 -0.049145926 -0.48847353 -0.69683355 0.12648065 -0.5528644 0.10316905 -0.29644543 0.31359398 0.3041743 0.38161987 0.13302541 0.22742137 -0.08428294 0.0909143 -0.238117 0.28746456 0.35324022 -0.3269958 -0.1504576 0.3449413 0.11521665 -0.12823917 -0.46935266 0.4678509 -0.2314142 -0.74036676 -0.16982748 0.43843508 0.36418113 0.35050008 -0.15614226 -0.17906767 0.14773324 -0.12131901 -0.13840333 0.4040579 -0.15158224 0.8783631 0.8422316 0.15932843 0.34211054 0.84233654 -0.6527348 -0.24774714 0.24861453 -0.6158103 -0.027025497 0.63942593 -0.22263746 -0.073178 0.2563182 0.032548953 0.021699889 -0.33178747 0.3064623 0.8555234 -0.2670917
result 0.043007493 0.1368555 -0.21106957 0.61428666 0.0007665716 -0.21633375 -0.028127741 0.3522329 -0.40259153 -0.959969 0.10233639 0.3093904 0.70471865 -0.27255714 -0.4195608 0.23504318 -0.07108361 -0.05313204 -0.03691262 -0.4826712 0.060360465 0.05462997 -0.7320047 -0.7079538 0.05846961 0.12693806 0.2560616 -0.47905603 -0.07580002 -0.19837414 0.21010523 0.022685193 -0.007438329 -0.30754218 -0.70958376 0.102551416 1.0443846 -0.16838321 0.3407237 -0.09374328 0.19489999 -0.15905984 0.15473844 -0.32262993 -0.13031505 -0.46075398 0.6250881 0.08980873 0.1968957 0.1649781 -0.33195356 0.37661082 0.11151725 -0.21249275 -0.030386657 0.5322584 0.1292628 0.75213313 -0.25230423 0.07858564 0.15237464 -0.14233139 0.30473372 0.16662805 -0.40541536 0.17778648 0.7557574 -0.09089365 0.48478335 -0.42745033 0.21544234 0.12884331 0.46248466 0.5262295 0.027391221 -0.17496124 0.012538655 -0.11312276 0.40270466 -0.0035232808 0.18966848 -0.091184005 -0.045018233 -0.7730546 0.20071734 0.13722938 0.09556674 0.17211251 -0.1841055 -0.28879997 0.2272111 0.21793048 0.5928533 0.0041252114 -0.4351938 -0.27925825 -0.29555196 0.87657046 -0.66917217 -0.24946152 0.14072461 -0.25059396 -0.2899648 0.02995133 0.38600764 0.012906075 -0.17319387 0.21939231 -0.30566767 0.37414572 -0.7744799 -0.030766139 -0.110558994 -0.3512518 -0.07054854 0.08723455 0.6134371 -0.18443508 -0.042218752 0.31722936 0.182369 -0.27982625 -0.42910978 0.5651727 -0.14275692 0.076076366 -0.15329742 -0.011273544 0.092006184 0.27683043 0.4422324 0.6280532 0.36246932 -0.070633836 0.16486628 0.21461716 0.46323434 0.1325208 0.033236388 -0.111948416 -0.07509964 0.70605904 0.4483362 0.19122191 0.30054012 0.37952834 0.29451117 -0.12529458 0.005822572 0.3191389 -0.09746459 0.09007694 -0.27447438 0.60730284 0.22312719 0.16053395 -0.0014394666 0.072360404 0.087647185 -0.029168542 0.31321195 0.5144776 0.078580745 -0.11167354 -0.042727087 0.44211423 -0.11632607 -0.3129345 -0.5946967 -0.2936777 -0.10708752 0.039860796 0.09465465 -0.6410651 0.12557615 0.021083735 0.18345344 -0.38403767 -0.13872838 -0.31739178 -0.5079659 -0.22160621 -0.098115206 0.05810703 -0.051582575 -0.17095405 -0.034485117 -0.07481152 -0.06812708 0.22693546 0.38936055 -0.17578167 -0.5998596 0.2546358 -0.44445243 0.22038297 -0.05916089 0.31401393 -0.5874567 -0.48625216
k 0.2503227 0.016533097 0.6225318 0.48643526 0.24452607 0.03503214 -0.28731835 0.19331631 -0.21451458 0.31944114 -0.28963 -0.85621977 0.8833995 -0.88029915 0.67720026 0.38488856 -0.6080702 -0.36592883 0.11195369 0.34439665 -0.9924324 -0.01085631 0.1480834 0.2943694 1.1651754 -0.1058848 -0.7492674 -0.43494743 -0.02418603 0.45459148 -0.24187654 0.38524264 0.45301312 0.39106792 -0.04129565 -0.46930394 0.3974132 -0.09426593 0.09511772 0.050982207 0.032809872 -0.15984385 0.33828756 -0.09322919 -0.20922354 -0.59725475 -0.17759833 0.07863245 0.5368497 0.82638514 -0.34088048 -0.5266016 -0.007554962 0.18850091 0.119625695 -0.36155877 -0.4528315 0.22307591 0.55734956 -0.25994876 -0.27731103 -0.85213137 0.32864305 0.81376153 0.17567074 0.69509333 -0.64347446 -0.41271856 0.27041635 -1.2706276 0.85341096 -0.19100529 0.7292642 0.23227932 0.4848904 -0.2789995 -0.746672 -0.66768515 0.48077098 -0.10920807 -0.44619557 0.3157329 -0.74408734 -0.09552899 -0.34525907 -0.31926516 0.080271795 0.41239157 0.083614774 0.033449944 -0.34104887 -0.24432965 -1.158652 -0.3107558 -0.5230003 0.028962836 0.16490236 -0.48917538 0.43613118 -0.48900557 -0.35471317 -0.27493975 0.28044432 -0.20156217 0.21910664 -0.30620497 0.07830321 0.24553525 0.23092464 0.3305968 0.19304857 -0.30491915 0.5751938 -0.25705615 0.060109057 -0.6873452 -0.393516 -0.13441548 -0.5743259 -0.45314988 -0.32715598 -0.3335813 -0.43956137 0.7984764 0.045076497 -0.4804001 0.14032586 0.53310555 -0.009515594 0.20377424 0.12377811 0.6288841 -0.033563092 0.050429694 0.30079538 0.45400554 0.28060132 0.22260697 -0.2837172 -0.42078224 -0.43059385 0.69178253 0.33425906 0.62196815 0.68792206 0.5397433 0.24758466 0.1308703 -0.37486547 -0.40362513 0.07215752 0.5670602 0.01265918 0.082703635 1.4379356 0.03625767 -0.20033982 0.21181443 0.5268349 0.39851165 0.23235367 0.32816297 -0.06372182 0.2303235 0.41357395 -0.22424425 0.0939928 0.11845458 0.09685434 -0.23434752 -0.6451992 -0.1633916 0.38360536 -0.8477971 0.2851014 0.7698935 0.1928684 0.56868154 0.33763832 -0.038740423 -0.7046356 0.72172004 -0.41642368 -0.68310696 0.84050286 0.24163273 0.21065646 -0.09698527 -0.32144338 -0.00020919828 1.0036243 0.06053317 0.38119727 -0.050339516 -0.18684874 -0.28170702 -0.15537645 -0.43930215 -0.48109844 0.28447568
x -0.49189162 1.0235759 0.16576894 -0.025000088 0.077490225 -0.3297833 0.045482684 0.43947226 -0.6747527 0.39683664 0.34287322 -0.120660506 -0.097813495 0.1968507 0.15831812 0.53037524 -0.18116163 -0.006316101 -0.16853265 0.51276654 -1.2012916 -0.42622402 0.11335015 0.297848 0.14537959 -0.1851957 0.040926993 0.14812718 -0.16927229 -0.024588434 0.5344463 -0.07637932 -0.3345585 -0.27519697 -0.22962825 -0.0067796265 1.0851705 0.06573447 -0.55566937 -0.30521318 0.06728646 -0.4941919 0.12945235 -0.8567056 -0.45217836 -1.0683289 1.0391752 -0.5765492 0.42646304 -0.124678954 0.18648426 0.6256741 -0.6829162 0.4778023 -0.06549175 0.543347 0.13106777 -0.2514556 -0.6541897 -0.40002277 0.31725264 -0.22583391 -0.115440875 -0.1893496 0.0050769458 0.5840983 -0.012725193 0.02482605 -0.08027703 -0.35425198 0.9314384 -0.1665466 -1.0660285 0.8148722 -0.42969155 -0.4425745 -0.34246957 -0.6307397 -0.6443604 -0.33179215 -0.17066528 -0.55681026 0.029818501 0.2881374 -0.36989123 0.54502463 0.11816123 -0.38723713 0.107985586 -0.66950625 0.32941407 0.32567427 -0.22968969 0.3284869 -0.43591493 0.38661584 0.35782862 0.23497926 -0.2718659 -0.48959544 -1.0072789 -0.04192742 -0.116228275 0.71884525 0.73783857 -0.102238856 1.0316628 1.0518694 -0.03377565 -0.08713047 0.38930488 0.5221424 -0.7165627 -0.8764416 -0.34251913 0.24477261 -1.1264002 0.51823485 0.22814628 0.06889993 0.5162226 -0.08855176 -0.19911458 0.4747989 0.79177403 1.1930463 -0.37137872 0.089762546 -1.1799257 -0.13765784 0.31799352 -0.29451165 -0.5010054 0.23242715 -1.0371549 -0.07403084 0.4798518 0.41370255 -0.6320681 0.044554345 0.00097176246 -0.06995321 -0.17613593 0.05888814 0.06700737 0.018128004 1.3202502 0.37138784 -0.29331568 0.04168063 -0.3170271 0.3728283 -0.19822142 0.07639102 0.44948927 0.46828818 -0.3068734 0.49570683 -0.6319152 0.1311925 -0.08730783 0.5830573 -0.06447472 0.12234902 0.63768053 0.5162173 -0.071741596 1.1787806 -0.59085196 0.102225274 0.66763073 0.31774333 0.093303725 -0.14782159 -0.23461422 0.3121839 -0.22886565 -0.26195353 -0.21344353 -0.41695243 -0.09864714 -0.56683636 -0.7275554 -0.035324793 0.15954441 -0.08521941 0.58292806 0.8017728 -0.28214672 -0.06505031 -0.10880616 -0.15592214 0.57327455 -0.39917395 -1.4820819 0.5478866 -0.310358 -0.2000568 -0.8641475 -0.43199444
different 0.34541163 0.32097468 0.35633788 0.32347214 -0.863018 0.092393935 0.35648975 0.20799021 -0.2893989 0.31043026 0.45797396 0.3499645 0.38304844 0.52407575 0.22108445 -0.14180769 0.24632682 -0.04437788 -0.024191687 0.6308854 -0.09169232 -0.15368907 0.19765559 0.39813593 0.62173945 -0.09699068 0.49490672 0.09679218 -0.23696811 0.24777843 -0.3618284 -0.39726993 0.9317714 0.29878187 -0.035091504 -0.0035400386 0.22432408 -0.583734 0.5343501 0.1705345 -0.12051213 0.4288193 0.20077503 0.7960687 -0.033008307 0.25337866 0.5938217 0.1349769 -0.37257376 0.47343856 -0.19736741 0.21661367 -0.45134366 0.077998534 -0.38284612 -0.06481054 -0.21207933 0.07537091 0.13082537 -0.5473057 0.1598833 0.22617947 0.6894124 0.38416532 -0.31863895 0.18497315 -0.096243694 0.31760007 -0.11671406 -0.07157108 -0.5666664 0.24777183 -0.6169667 0.121083416 -0.48935884 0.13113523 -0.09971493 -0.2667503 0.13759707 -0.13703877 -0.3165237 0.0020499483 -0.493272 0.17454998 -0.24599814 0.2650825 0.022180963 0.32640406 -0.065346055 0.37396413 0.5868465 0.0021368312 0.20059574 0.29903162 0.40914467 -0.45174932 -0.19443153 0.32616606 -0.3399655 0.24606006 0.6276155 0.008853359 0.1166418 -0.28839746 -0.20769538 0.94601136 0.0864006 0.032216746 -0.20896505 0.09175384 -0.003043863 0.6128886 -0.12198624 0.066062815 0.58682793 -0.4871498 -0.117738456 -0.12112745 -0.23928274 0.5101236 0.13705239 -0.08335703 0.2909353 -0.31449172 -0.123383716 -0.06395465 0.38925293 0.14115727 0.11234609 -0.19658281 -0.41247213 0.05223117 -0.463291 -0.034686923 -0.23277296 0.016922692 -0.09938511 0.046163287 0.15532905 0.08195086 -0.08238588 1.0701603 0.560822 -0.59704036 -0.107579656 0.00033021858 0.208057 -0.23741393 0.09727843 0.50449723 0.46530145 -0.013516825 -0.15568884 -0.46928892 0.11511615 0.30680254 -0.13505034 0.27584124 0.1353425 -0.18207969 0.47709483 -0.25121537 0.4318645 0.53465474 0.32622197 0.8082219 -0.12884644 -0.38290864 0.087584086 -0.08803448 0.09554329 0.504179 0.48076314 -0.55164295 0.5303585 0.09529376 0.27457318 -0.36531416 -0.3182813 -0.4782898 0.18337728 -0.48861083 -0.3667991 0.15086262 -0.28181136 0.0036102135 -0.38914153 0.060832914 -0.40229452 -0.428009 -0.6279163 -0.07905995 -0.62583447 0.20774612 -0.8165417 0.15054868 -0.2140743 0.685367 0.45358065 0.16150597
provide -0.36801794 -0.85237384 0.0032140082 0.6099416 -0.7323444 -0.0030391035 0.044292938 -0.3902682 -0.031689104 -0.06277012 0.59549516 0.101131134 -0.03248076 0.78133166 0.16164365 -0.33107236 -0.3765471 -0.046267785 0.33273464 0.18498832 0.4259405 -0.06668071 -0.032713734 0.026262565 0.34182048 -0.21497844 -0.0056778383 -0.27458245 0.3324942 0.15018243 0.008729259 -0.110403284 0.28129965 0.59253585 -0.18330704 -0.30836508 0.68756896 -0.13885906 -0.22081485 -0.6834973 -0.2821233 0.08076634 -0.35087287 0.18539685 0.07971456 -0.47441286 -0.24811587 0.24290942 0.02512867 -0.12533942 0.17550774 0.4294585 0.8100883 -0.20467652 0.40052685 0.31728458 0.40838715 0.31926247 0.16084662 0.14003265 0.14354575 0.74728566 -0.09187154 0.5177703 -0.16470009 0.5536649 -0.52932954 -0.29828754 0.571184 -0.1846162 0.1257377 0.083016425 -0.078381255 -0.10683428 -0.5208707 -0.10465212 -0.40443552 -0.20136629 -0.27679685 0.12956913 0.080566555 0.03799326 -0.25672036 0.27703983 0.31885216 -0.045171186 0.44701934 -0.23481177 0.09963024 0.14891838 0.23297301 -0.0076362165 0.23830847 -0.3925417 -0.6316973 -0.23316379 0.26539418 0.6985939 0.20340085 0.42880073 -0.058909893 0.027768923 0.25063294 -0.081433944 -0.30873665 0.050971188 0.34361014 0.037166685 0.40981403 -0.44129685 -0.1399289 0.22626571 0.25246474 -0.49478227 -0.42487353 0.32611045 -0.1310138 -0.21832497 -0.25690567 0.29581738 0.15930122 0.049971882 0.016444465 0.041110516 -0.20630972 -0.4279051 -0.559672 -0.005628352 0.3049151 -0.30122527 0.23563826 -0.70447373 0.29293963 -0.13672364 -0.15872727 -0.10909462 0.23020713 -0.017762864 0.13639219 -0.1433176 -0.15455857 1.0279177 0.5484794 -0.021808635 -0.032630857 0.099057615 0.5915806 0.28569 0.57963467 -0.21228589 -0.44568083 -0.83563507 -0.48542744 0.0922002 -0.03204018 0.67618847 0.37812495 -0.036970362 0.48853758 -0.19784544 0.38944927 -0.1781371 -0.016804311 -0.6011049 -0.199827 0.0715531 0.19687693 0.2500422 0.18066786 0.24100167 -0.14978085 -0.020484416 0.18425557 0.33531836 -0.14361046 -0.41924605 -0.09059515 0.040924773 0.1869884 0.389217 0.22534809 0.22325459 -0.4307049 -0.11790248 -0.19774154 -0.19468458 0.19920301 -0.26548392 0.46335316 -0.3089024 -0.012038419 0.22371681 -0.060661793 -0.41211358 -0.13972881 -0.16339351 -0.13151354 -0.13176833 -0.21876381 0.6170268
m -0.7096773 0.5287789 -0.45009187 0.18511266 0.63016367 -0.01664295 0.12388979 0.117805675 -0.21649732 -0.13765608 0.23383677 -0.46065253 -0.54657143 -0.4584759 -0.740998 -0.095318906 0.21478054 -0.25599283 0.81383073 -0.6094496 0.16942297 -0.33039322 0.23318106 0.2945896 -0.17229247 -0.07059026 0.20910682 -0.54535574 -0.6007914 -0.39793614 0.5306758 0.5094164 0.1764454 0.23878373 -0.11864858 0.56518704 0.9024885 0.0004342636 0.03977719 0.5029726 0.22815569 -0.54471815 -0.011767108 0.075034186 -0.5780367 -1.4670528 1.383269 -0.2165811 0.5900214 -0.22973502 0.13480796 -0.11296373 -0.09591325 0.24972956 -0.8069784 0.14370313 0.24480969 0.20680328 -0.2796838 -0.32521927 0.020895842 -0.7485162 -0.24095757 0.55403906 -0.0676964 0.3195553 -0.020694057 -0.15207256 -0.19022164 -0.48643884 0.22328587 -0.6404964 1.2752987 0.9016318 0.19291054 -1.0361317 0.56837946 -0.0799714 -0.16781028 -0.56508845 0.023359202 -0.15680842 -0.65436935 0.3999573 0.2194711 -0.27789682 -0.27147698 0.2546004 0.49565157 0.09582071 -0.58301395 -0.3567069 -0.76760256 -0.78009236 -0.14465567 1.1333431 -0.20522764 0.26983535 -0.4291476 -0.9714721 0.16323681 0.29044342 -0.28664222 0.6090821 0.76750374 0.43675593 0.24046405 0.41448936 1.0717353 -0.27083904 0.2188634 0.033252835 0.14423788 -0.32821923 -0.21649703 -0.689947 0.5479905 0.58027506 0.41210276 0.15362278 -0.35141003 -0.7183364 0.087648876 0.8622942 0.2218508 0.2874836 -0.31100175 -0.15722354 -0.38350746 0.09565082 0.05472123 0.4336481 -0.692344 -0.5707571 -0.16630267 0.19989292 0.32450476 0.29347095 -0.17539063 -0.2374116 0.38732103 0.9578095 0.45560837 -0.086779565 -0.02806992 -0.5587202 0.25200638 -0.34792 -0.7632248 -0.8313235 -0.17255408 -0.51130867 -0.6087429 -0.20582582 0.06610821 -0.06690511 -0.28833294 -0.2132227 0.59784746 -0.22705413 -0.4984369 -0.66231316 -0.096473046 0.25489032 0.2790309 -0.9812173 -0.020622786 -0.5150696 -0.72198427 0.84987134 -0.38729763 -0.14772479 0.38461855 -0.002720397 -0.25502074 -0.12604325 -1.0200489 -0.19381115 0.5887682 0.50947225 -0.014188824 0.2504953 -0.19087894 -0.6209828 0.14661305 0.20946208 0.15904748 0.3441134 0.45643514 -0.085782826 -0.45575505 -0.54906535 0.47891942 -0.5543754 0.76975155 -0.3752293 0.6023795 0.60238516 1.0030494 0.05463605
system 0.16890295 0.038969256 -0.034013 0.21483369 0.20895076 0.026674073 -0.3857296 -0.79348546 0.25359508 -0.59538233 -0.13954066 -0.105541974 0.28538874 -0.13367362 -0.09579311 -0.3101176 0.051501617 -0.15836763 0.563001 -0.17574403 -0.45042947 0.36982122 0.080860585 -0.052371487 0.026915614 -0.25554153 0.3100751 -0.3701231 -0.015045294 -0.0490062 -0.1414199 -0.43459514 -0.33998588 -0.0961484 -0.47423226 -0.13676982 0.41885263 0.24402168 0.4339318 -0.32054248 0.054478467 -0.39829433 -0.19670029 0.028519522 -0.16249053 0.10633434 -0.012222502 0.027603624 0.4220811 0.033824146 -0.1133504 0.5638325 0.7531678 0.18796046 0.45797586 0.1289238 0.50146145 -0.3139175 0.10005868 -0.24643758 -0.39246613 -0.028880944 0.054653343 -0.17470855 0.24497975 0.033234425 0.15466262 -0.04144816 -0.43117377 -0.34647658 0.36481804 0.29825506 0.010269708 0.09918186 -0.011168164 0.2396078 -0.26441154 0.027842868 0.013869802 -0.23901686 -0.115826964 0.49552387 -0.111501046 0.07764375 0.2994977 0.20254512 -0.011551472 -0.07200967 -0.20714147 -0.026127012 0.029046973 -0.1459463 0.4087386 0.41642922 -0.10966584 -0.48790276 -0.025054093 0.58489424 0.23958692 -0.2618246 0.43295535 -0.11427626 0.51486146 -0.18561906 0.10507766 0.04820415 0.05125067 -0.41940048 -0.2772046 0.3027199 -0.36516905 -0.3206249 -0.10303716 -0.00992306 0.3911105 0.19578972 -0.42112935 0.11313736 0.31433305 -0.07816952 -0.32440966 -0.27470666 -0.058232587 0.6025201 0.15282205 0.081004344 -0.23005266 0.36688668 0.34921938 -0.44018856 0.25632116 0.106067345 -0.47858435 0.14609113 0.5656903 0.1320683 0.54303 -0.01315426 0.0018115083 0.05125669 -0.75820136 0.9791488 0.04505557 -0.6151265 0.08114004 -0.006949334 -0.18844582 0.028941007 -0.2287867 -0.22709489 0.30539992 -0.6121544 -0.19295914 0.14462806 -0.038791858 0.68875426 -0.3879866 0.72075284 -0.25303423 -0.31698403 -0.8581292 0.32498035 -0.06084184 -0.372312 0.29436192 -0.248866 0.08253764 0.25991067 0.49158695 -0.14667034 0.19667262 0.061871663 0.6334249 -0.694832 0.045753792 -0.038520824 -0.1115592 0.3230043 0.40198436 -0.82443446 0.08941736 0.42356586 -0.36976925 0.045001984 -0.169435 -0.0016835602 0.5773823 0.17615898 0.3151735 0.18181534 0.2982795 0.26149523 -0.2352235 -0.5542021 0.012289008 0.5240429 -0.06998893 -0.016662143 0.51791716 0.15207507
datum -0.065813735 0.31936547 -0.097399354 -0.011040037 -0.53185695 -0.24825121 0.26288426 0.1976673 0.08999484 0.41212654 -0.72025794 0.5639797 0.13342674 0.3415927 -0.54062456 -0.04186983 -0.42674318 0.17430064 0.2047233 -0.75672746 0.35341543 0.66785836 0.52261853 -0.11372068 0.16102089 -0.13558163 0.42358682 -0.12217204 0.28240117 -0.29263312 0.29636306 0.06489956 -0.44892144 0.17472048 -0.042652503 0.11332738 0.19859855 -0.23087281 -0.58744764 -0.3346262 -0.22790323 0.31451955 -0.0294861 0.23645307 -0.83472264 0.83006746 0.16160241 0.14667879 0.3109452 0.08736863 0.5622745 -0.109705515 -0.23244815 0.06896844 -0.3719287 0.2100268 0.072919525 -0.26419953 -0.093535125 0.5013675 0.26306927 -0.21628001 0.3186981 0.38851917 -0.03754124 0.12257083 -0.4944145 0.62253356 0.36675277 -0.33257905 0.09344649 0.27650797 0.29429188 0.17808655 -0.041768834 0.53960043 -0.18693186 6.647216e-05 -0.4528414 0.19862223 -0.68576664 0.064693 0.18810701 0.05899846 -0.37796637 -0.3140691 -0.02245615 0.506713 -0.5016351 -0.5216833 -0.2277865 -0.0570652 0.5185227 0.11091551 -0.5672816 0.35958058 0.18297257 0.119416006 -0.6864518 -0.31079453 -0.16241066 -0.012419327 0.280577 0.16705802 -0.16415803 0.6675621 0.14035858 0.0019785604 -0.0027664322 -0.43573475 -0.016304936 0.10798658 -0.16376813 0.007089046 0.20558159 0.19624932 -0.48895562 0.5333243 -0.4351658 0.49237064 -0.17995177 -0.14783677 0.6388394 0.40718654 -0.2603184 -0.37041414 -0.46075624 -0.22520849 0.20996255 0.11210526 -0.07265403 0.06242351 0.7549979 -0.10996452 -0.2245557 -0.3233854 -0.072701395 0.24988188 -0.3732221 0.30117375 -0.19234219 0.8651693 -0.7070637 -0.25572646 -0.18521366 -0.5108164 -0.17806277 0.7942644 0.99931514 -0.039571468 -0.24629116 0.29837632 -0.21162441 -0.1211506 0.2406423 0.1366395 0.04003335 0.15474527 0.2526786 -0.5174412 -0.34291083 0.04144294 0.13780476 -0.029079821 -0.2850702 -0.14430974 -0.00458014 -0.54680127 0.23968403 0.25740138 0.00095321465 0.71289885 -0.23128982 0.020770894 -0.52200127 0.029610319 -1.1279311 -0.17135966 -0.029826779 0.24694382 -0.1949323 0.11499133 -0.095481694 -0.31705466 -0.035238117 0.401136 -0.055607505 -0.25870544 0.67291266 -0.008777704 0.74710035 0.21875256 -0.24750236 -0.04850018 -0.029844197 0.67969805 -0.5220736 -0.089955255 0.26120624 -0.25310254
level 0.1723846 0.0071727945 -0.015115652 -0.31249008 -0.14610943 -0.47186193 -0.008418115 0.33809948 0.28327507 -0.25303996 0.85310537 -0.8274884 0.17916648 -0.45598266 -0.34110796 -0.10839485 0.054226257 0.13950194 -0.1399665 -0.15871829 0.19204558 -0.36923146 -0.08374368 -0.56573164 0.5755939 -0.38666084 0.08986263 0.07803895 -0.4752454 0.12051925 -0.056536566 0.14397736 0.34251 0.14967737 -0.4986161 -0.27852145 0.3405221 -0.1989684 -0.062006433 0.5291174 0.43781123 0.20167507 0.22128166 0.06900808 -0.09537746 0.16282046 -0.1030411 -0.6261587 0.10543868 0.32145768 0.7436839 0.21997352 0.3188597 -0.21547438 -0.061382037 0.13856244 0.46036592 -0.39383188 -0.057874978 0.14372475 0.109735005 -0.18964732 -0.06263604 0.08051553 0.36734012 -0.3591494 -0.20536391 -0.16963285 0.19948737 -0.39607823 -0.5400035 0.39259824 0.15168382 0.32188344 0.3325974 -0.28241524 -0.17404696 0.112513475 -0.044964653 0.69307876 -0.15990065 -0.2824956 0.04648969 -0.5407652 0.3357494 0.25903487 -0.08112932 0.16799249 -0.025319641 -0.11230345 -0.74403363 0.072573945 -0.4031825 -0.77018714 -0.046321053 -0.015412694 -0.22267926 -0.49968222 0.1509917 -0.8897284 0.2830615 0.31519136 -0.20193869 -0.16937438 0.45122752 -0.3401575 0.36509758 0.10267924 -0.19244057 -0.6299621 -0.12138666 0.13101086 0.56944877 -0.033176553 -0.282235 -0.6155864 -0.5599519 0.59242994 -0.1841307 0.4480552 0.25341892 0.20326705 -0.496998 -0.7861389 0.056627072 -0.112902865 -0.42043594 0.45683384 0.22203758 -1.0712122 -0.11656447 -0.5841979 -0.35047898 0.10334777 0.15912424 0.20612538 0.8569155 0.44660413 0.04409425 0.39430302 -0.14838909 0.91439396 0.40352097 -0.4461299 -0.045783322 -0.09061462 -0.3126045 -0.124487065 0.4900619 0.045051917 0.3706153 -0.034531713 0.43930066 0.12216139 0.1355792 -0.06372158 -0.23785482 -0.09897785 0.02412212 0.4546869 -0.012608131 -0.22989072 0.44869703 -0.48149058 -0.010532744 0.025803039 0.4916996 -0.23658168 0.14946766 0.30227685 -0.6637856 0.84861666 -0.16206343 -0.5141507 0.17549424 0.0060354406 0.18684645 0.41577837 0.19341572 0.07665544 -0.11000438 0.13510875 -0.083098836 -0.13457452 0.21102954 0.39355344 0.10357968 -0.12718971 -0.14753965 -0.080152415 -0.28951937 0.119233675 0.09313748 -0.37393713 -0.2964034 -0.19404997 -0.12295757 -0.041354276 0.37007463 0.046335243
c 0.17712623 -0.08587838 -0.52098256 -0.32874873 -0.38413867 0.63064754 0.25875404 -0.8076196 0.34741804 -0.54224336 -0.049306627 -0.65221065 -0.48930404 0.046985094 -0.5661075 -0.5250475 -0.36305398 -0.6283325 0.26463246 -0.21563707 -0.75837106 -0.3316782 -0.28151712 -0.13331088 0.35363168 0.32746154 -0.6428089 0.3159382 0.5659902 -0.05363287 -0.5153588 0.6182087 0.7196044 0.85394394 0.2376924 0.5820635 1.128075 0.25918224 -0.025179118 0.10421607 0.21599835 0.26664326 -0.60494304 -0.53881776 0.3228905 -0.6064599 0.30853996 0.5595816 -0.18789133 0.4046217 0.628819 -0.6772807 -0.024699202 0.35122585 -0.28838494 -0.45927563 0.05682503 -0.54498875 -0.6423095 -0.34263465 -0.19688818 -0.14218621 -0.2826406 1.6626934 0.34988868 -0.42050323 -0.37168285 0.17304458 -0.02542198 -1.113511 0.56326866 -0.270141 0.039396595 -0.24847499 0.4673671 -0.76945084 0.006517553 0.4231147 -0.92746085 -0.464304 -0.09762872 -0.37564123 -0.35359645 -0.13435967 0.48344648 0.08313859 0.38178572 0.6546782 0.6656119 -0.033406515 0.7651606 -0.39388123 -0.24359983 -0.24955516 0.10205325 0.055782273 -0.36226693 0.5546331 0.1880512 -0.80689067 -0.07593617 0.28128976 -0.21834028 -0.0011814056 -0.124744155 -1.2292675 -0.71276736 -0.03432397 -0.6909405 -0.042428546 -0.546438 -0.64210755 0.20510703 0.23739073 -0.2310918 -0.49693573 -0.6639507 0.6512258 0.09590568 0.20767412 0.13874559 -0.41169858 0.63180625 0.5667356 0.18472151 -0.09406244 -0.2248902 0.15309753 -0.713659 -0.14419761 0.19307722 1.1976501 -0.27151734 0.64401484 -0.20986144 -0.6231077 0.589344 -0.30670202 0.26583564 -0.03603344 -0.7158966 -0.13194501 0.081482306 0.47607604 0.23796912 -0.15041229 -0.2665966 -0.19596133 -0.7993238 0.0566546 -0.14923538 0.082515374 0.052539513 -0.15444441 0.8691438 -0.63870645 0.5285455 -0.09217441 -0.3532155 0.34566426 0.3317479 -0.13960508 0.10369933 0.113112316 -0.036089923 0.03457012 0.5245777 0.5931217 -0.10192981 0.06411926 0.090056606 -0.05145842 -0.009376237 -0.38164505 0.031374253 0.2218738 0.3465997 -0.19904093 0.7817092 0.018435203 0.24079747 0.7364972 0.06439309 0.10748752 0.3692536 0.26235574 0.121178426 0.47785854 -0.4714504 -0.6507046 -0.5518401 0.50864047 -0.52890134 0.34785628 -0.49615118 0.3290825 0.22067209 0.3743882 0.15177043 0.13225232
value 0.9431636 -0.4373938 -0.20055084 0.40093884 -0.71823746 -0.2521489 0.4367228 -0.20209324 -0.3958657 -0.20062566 -0.010620995 -0.48354754 -0.0805482 0.056780796 -0.698993 0.1589936 -0.28998163 0.026355525 0.040008854 0.3498136 0.33361828 0.56490165 0.2656342 0.3534996 0.21273963 -0.22499329 0.19526437 0.062158454 0.10024164 -0.0326599 0.65885776 0.43498605 -0.8793508 0.06144594 -0.30568612 0.6571209 -0.014836552 -0.48140633 0.42626533 0.20950766 -0.06149337 0.34191325 0.19522832 0.109452784 0.27744865 -0.3901387 -0.030854885 -1.0627636 0.38599566 0.3341383 0.19390398 -0.16302939 -0.36186177 -0.6432435 -0.40203804 -0.36166137 0.33144966 0.5659852 0.78863543 0.7229157 0.05300233 0.24484423 -0.45310083 0.22270615 0.36107734 -0.14915033 0.09884517 -0.1542132 -0.32426915 -0.8771428 0.39612362 -0.6363535 0.55435026 0.2762036 0.13316306 -0.284934 -0.3628112 0.30760956 0.15961792 -0.2425791 -0.0026864954 0.19021685 -0.01683953 0.1313764 0.33542913 -0.064042784 -0.22944729 -0.49690723 -0.40191796 -0.39103866 0.6605455 0.46460536 -0.024261791 -0.22775365 -0.09231756 0.35820433 -0.1861535 0.15445897 -0.19815531 -0.6710589 -0.21715502 -0.31366634 0.07542746 0.079894915 -0.15062101 -0.060191292 0.3142917 0.32475775 -0.6527176 0.10753109 0.5012228 -0.026788305 0.00889953 -0.23847805 0.05511226 0.25856525 0.49786183 0.17450899 -0.10701887 0.09062631 -0.44379026 0.16204545 0.07968236 0.1791223 0.40202674 0.33055317 0.15794541 0.18043847 0.20282857 0.02102407 0.24945861 -0.51471525 -0.16891697 0.24715081 0.9163701 0.20934859 0.42610717 0.04904932 -0.27839947 0.52067554 -0.22876453 0.91123897 -0.10287221 -0.020586474 0.12914604 0.13057569 0.035881724 -0.434557 0.08449114 -0.5268362 -0.19087003 -0.25622833 -0.028051183 -0.32202804 -0.374479 0.13585109 -0.17063843 -0.29585704 0.60738295 0.35409147 -0.056764793 0.13377357 0.50149256 -0.056893986 0.36817664 -0.5154004 0.19596475 -0.4837289 -0.5915759 -0.08180197 0.10365199 -0.7182932 0.9505584 0.17329204 0.6009436 0.2819391 -0.07102222 0.27145797 -0.28214616 -0.104456164 0.15715018 0.13028318 -0.51194924 0.21617164 -0.0072648954 -0.13510872 0.028381502 -0.6809937 0.22020833 0.41366193 0.052639373 0.39288938 -0.5411214 -0.0014538603 -0.51800764 0.17251761 -0.29689535 0.38115257 -0.33015335 0.21927266
number 0.07293804 0.6719126 -0.20887846 -0.2087648 -1.0081975 0.31029055 -0.09217851 0.27913883 0.0065190294 -0.10502539 -0.261392 -0.21117248 0.05428958 0.3160954 -0.10261688 0.30785444 0.2817853 0.25232553 -0.5815138 -0.09036077 0.20089976 0.37759352 0.49812388 0.41149625 0.47474504 -0.1404023 0.06829901 -0.28111935 0.1717125 0.09111723 -0.14933403 -0.6459886 -0.20643629 -0.0075488356 -0.7055318 0.045165483 0.10733426 -0.7413246 -0.22804797 0.14318043 -0.47420755 -0.028257212 0.056807823 0.49520385 -0.16015159 0.42762384 0.7642199 0.025575152 -0.2959326 0.044334725 0.12024053 -0.2345592 0.23101243 -0.366251 -0.3562907 0.49790826 0.7715598 -0.3774226 0.033931546 -0.562104 -0.9597904 0.14195189 -0.58473456 0.4926354 0.295772 0.27904597 -1.358983 0.31916398 0.05318532 -0.17835502 -0.36037844 -0.11270998 -0.2290745 0.08036554 0.08863189 -0.19339532 -0.45720178 0.24748163 0.04644385 -0.18198408 -0.06343674 -0.64580524 -0.05351114 0.037804306 0.09685194 0.57843935 0.20375912 -0.15919259 0.38750502 -0.04291759 -0.11356614 0.048019666 0.2565343 -0.11725781 -0.46913624 0.16034883 0.088529594 0.29844397 -0.12525281 -0.5760159 -0.03171107 0.018381216 0.07388773 0.7147771 0.09718701 0.25324836 -0.21703078 -0.06254786 -0.21263167 0.37501478 -0.3128663 0.14879414 -0.5392962 0.2152926 -0.00082700455 0.18664461 -0.63888144 0.5473729 -0.46331713 0.27020153 -0.07861677 -0.49389115 -0.14582795 0.10429607 0.12506284 0.42224905 -0.7411948 0.36562094 0.10663428 0.50771415 -0.06424233 -0.9592731 0.070407696 -0.1303903 -0.33566383 -0.24435131 0.25199604 0.35442176 -0.5787469 0.21628112 -0.5579152 0.8537305 -0.13120483 0.016864864 0.2682895 0.58575493 0.22003238 -0.0018955003 -0.16655031 0.02699942 0.5436418 0.06814678 -0.05823804 0.2308872 -0.24633841 -0.12737574 0.30962312 0.34237662 -0.41819024 -0.47900802 -0.11389257 -0.013137301 0.5150602 -0.14304443 0.46494004 -0.5892046 -0.14610958 -0.2821143 -0.20485662 -0.41783014 0.27345887 -0.17337273 0.047643192 0.15960215 0.36109412 -0.046845697 0.06732346 0.0012740644 0.21000321 0.34345093 0.60605264 0.17489563 -0.06881963 -0.4614305 0.053511966 0.022402244 0.48699602 0.060537983 -0.44305328 0.30753663 0.85087425 0.090380706 0.50164026 0.036556996 0.35694873 -0.25911903 0.14671727 0.4828154 0.10516063 0.04446911
include 0.07300851 0.33634487 0.6320031 0.18490565 0.08991866 0.012822961 -0.20044872 0.25519964 0.38344315 -0.10271623 -0.21017493 0.075300366 0.08596653 -0.28150105 -0.15884343 -0.17514281 0.00028720213 -0.42663822 -0.38868162 -0.17512998 0.054786712 -0.19174358 0.034101624 -0.31012562 0.0016608969 0.05234719 0.02403446 -0.08590489 0.35445556 0.13590443 0.11626285 0.19469567 -0.13895167 -0.2062456 0.0026410848 0.42848992 0.045362405 0.23454322 -0.0947686 0.45803556 -0.06545379 -0.017317656 0.23333241 0.13406567 0.13159662 0.19457254 0.030615162 0.2984047 -0.25360623 0.097555995 0.09414822 0.12059283 0.09621177 0.22900061 -0.035080362 0.119749665 0.36955148 0.18604833 0.037179075 -0.08450552 0.12480833 0.06912295 -0.25876358 -0.20867763 0.22996885 0.1376807 -0.12542824 -0.41548908 0.30741698 -0.043300856 0.2530121 0.38980183 0.01099721 0.118558206 -0.37395644 0.040444985 0.41716194 0.27697158 -0.42600653 0.023952957 -0.11197787 -0.18892853 0.10831217 0.645629 -0.51102597 0.42833364 -0.3827904 -0.21508351 0.5064833 0.57407683 -0.27044022 -0.19406375 0.23540822 0.010985774 -0.08195012 0.20483796 0.287023 0.36570778 0.38282377 0.13288455 0.15734863 -0.21857381 -0.453933 0.2210751 0.55310726 0.2683191 0.18133976 -0.108657725 0.005214045 -0.13934131 -0.1723445 -0.18543848 0.2530889 0.1337794 0.7322542 -0.20301485 0.008577952 0.15870474 0.25510496 0.32712427 0.5790424 0.09612998 -1.1076074 0.123503216 -0.27716354 -0.4967565 -0.10169733 -0.07128432 0.25038993 -0.58177227 0.04905948 0.095354155 0.40218663 0.36854348 -0.053960316 0.28870243 0.1394215 0.16882679 0.45729128 0.105896346 0.01971568 0.57297415 0.33077908 -0.19500117 -0.18259549 0.19705063 0.49604467 -0.28182054 0.14569403 0.009139918 -0.043415245 0.2452618 -0.24637061 0.21014658 0.5797045 -0.062975965 0.32436755 -0.38034594 -0.2518225 -0.14983389 -0.07016144 -0.07171293 0.498335 0.62498564 0.03751587 0.4938083 -0.21640795 -0.48807326 -0.13194183 0.654385 0.2631454 -0.054566212 0.29661137 -0.059746113 -0.078859106 -0.14992043 -0.105637446 -0.859235 -0.2473936 0.204196 0.43296325 -0.11684563 0.11950591 -0.16043964 -0.30275813 0.2158989 0.28605598 -0.23377092 0.17069204 0.036120247 -0.4963527 0.06236237 -0.19805245 -0.13422747 -0.047439218 0.37140405 0.2665173 0.5374439 0.007319744 -0.28093788
low -0.91969675 0.13210638 0.17601947 -0.033669278 0.23541552 0.17382129 0.40442073 -0.36159414 -0.19024785 -0.13938148 -0.48115546 0.10358569 -0.13887826 -0.002814607 0.34544653 0.2760223 0.23678888 -0.023145266 0.11355815 0.13493904 -0.16187653 -0.22974502 0.11209117 -0.48184624 0.2136536 -0.77533346 -0.59534276 -0.19611318 0.19947928 -0.2445324 0.20155783 -0.12411579 -0.108676575 -0.5996043 -0.16357473 0.1520335 0.38255277 -0.18105024 -0.3028789 -0.107606605 0.25168383 0.31715518 0.33128536 -0.69460505 -0.024831273 0.23952775 -0.051790256 -0.11389934 0.17868212 0.69517833 -0.3871982 -0.051134333 -0.0799038 -0.31338406 -0.2502772 0.92658246 0.307584 0.29584098 0.36236542 0.39259267 0.434047 0.36143863 0.53789073 -0.88870615 0.055095773 0.08933263 -0.24821831 0.3145002 0.12841135 0.09032589 -0.110764205 0.007902264 0.007483231 -0.7574931 0.092161044 0.196956 -0.40315172 0.47976395 -0.43338045 -0.08361689 0.31169638 -0.02868839 0.27607703 0.4168042 0.41716075 -0.25530258 0.0014896011 0.10529119 -0.63471425 0.41102785 0.027147302 -0.27062714 0.20608947 0.050640386 0.14165255 -0.37003684 -0.404431 0.24989304 0.00569411 -0.48157832 -0.1801972 0.15082598 -0.5030746 0.063910805 -0.050031286 -0.31454062 -0.10310318 0.33278286 0.7159034 0.25069955 -0.17940018 -0.24728 0.16082148 0.29881728 0.5279229 0.11898103 0.04895924 0.23192418 0.72470945 -0.47573704 0.6417999 -0.3721224 -0.06450202 0.14104432 -0.06794167 0.15031317 0.14844137 0.07744186 -0.19877392 0.06332874 0.57956606 0.11273598 0.07254522 -0.16717568 -0.5533016 0.46102333 0.034440674 0.02890647 -0.059190817 -0.2720298 -0.9624713 1.0182968 0.072373964 0.5704372 0.60550046 -0.20805989 0.0062173977 0.29463038 1.2869239 -0.40437618 0.022794181 -0.30327308 0.19190656 0.043225892 0.41957098 0.38331947 0.042691402 -0.22978976 -0.12145898 0.09454404 -0.00576461 -0.2679732 0.32358292 -0.1839349 0.0866724 -0.47421482 0.15124771 -0.112102814 0.33263934 0.2722024 -0.4356916 0.5563843 -0.059373002 -0.05841517 0.35764435 -0.1999459 0.33694834 -0.2987223 0.17498076 0.1716445 -0.7879624 -0.013280951 0.096442506 -0.0386307 0.03240279 0.30987203 0.18236846 -0.20248738 0.18747804 0.008941569 -0.005104879 -0.03984159 0.043269936 0.62929016 0.10883843 -0.50801533 -0.124661915 -0.510011 0.46021774 0.31289184
h -1.0178794 -0.16864093 1.0576583 1.0090024 0.066177934 -0.10857702 -0.118911296 -0.08853657 -0.27338865 0.12135834 -0.2885657 0.24510647 -0.32620034 0.19624454 0.88808596 -0.33457837 -0.15519598 0.73738897 0.82909006 0.31756002 -0.3906939 -0.267299 0.92346364 -0.20853661 0.106288336 0.06805147 0.30744004 -0.8042244 0.1463954 0.121168375 -0.25443947 0.1027447 0.28962 0.11372567 0.36622804 0.21910477 0.8127823 0.026582263 0.5732808 -0.41477385 0.5621552 0.85244334 0.6083917 -0.2885528 -0.082497545 -0.37162423 -0.07469759 -0.48706192 0.38622367 0.27352634 -0.23493442 0.69393885 -0.7139801 0.5765298 -0.71316475 -0.062776946 -0.5108745 0.32688534 0.21915631 -0.40414476 -0.08689342 -0.31075934 0.055564847 -0.2731245 -1.0139399 -1.0037501 0.050036706 0.35259745 -0.09410489 -1.030298 1.2459462 -0.34490356 0.23696023 0.055680525 -0.35008863 -0.3797046 -0.25531766 0.07364927 -0.30195996 -0.16759592 -0.4350716 0.16208455 -0.089802675 -0.32451594 0.18009502 0.99349505 0.21279229 -0.34000504 0.31021148 -0.1271562 -0.42345884 0.092779845 -0.50667465 -0.31446797 0.9063795 -0.536619 -0.16843142 -0.072630994 0.5386435 -0.7907152 -1.1656269 -0.5058185 -0.46487403 0.37008908 0.14525685 0.18667923 -0.038089365 0.22808245 -0.29393932 -0.03640607 -0.7113376 -0.1603813 -0.9937495 0.76034456 0.22132353 -0.4130434 0.5107608 0.36192158 -0.8460129 -0.0644474 0.47941005 0.042371124 0.53399485 0.15185715 -0.46724582 -0.15920655 0.543762 0.32827872 -0.55446255 -0.3637132 -0.45850402 0.23284367 -0.6493703 -0.5972031 0.39517695 0.3655617 0.08851615 -0.15751544 0.7287143 0.6047568 0.64883375 0.28264067 0.22663912 0.11746571 0.38354582 0.03359442 0.71162826 0.32044053 -0.026377294 -0.11524728 0.28992826 -0.6068653 1.0601366 -0.5067072 0.21870404 -0.13905361 -0.6124984 -0.14111982 0.46560192 -0.11055714 -0.12409467 -0.14162749 0.43893188 0.101234145 1.0380939 -0.460874 1.2561401 -0.014858695 -0.34598738 0.007199969 -0.5010117 -1.320136 -0.09598267 0.35469347 -0.12006954 -0.10234408 -1.5739614 0.26008102 0.76980466 0.29074264 -0.38245788 0.46300238 0.5063289 -0.44565776 -0.42319265 0.5549243 -0.043226942 0.42369777 -0.53200305 0.46054083 0.64104426 0.79948694 0.13767898 0.3063541 -0.6063441 -0.3394557 0.21007253 0.52424645 0.44623783 -0.21326713
base 0.56987816 0.076106906 -0.24402994 -0.42774835 -0.17602791 -0.56596273 -0.5847237 -0.19880214 0.054111738 0.56059873 0.03976503 0.06335456 -0.12506865 -0.27942237 -0.278084 0.35849553 0.13933046 0.25552097 0.17567004 0.43612555 -0.11255437 0.4139147 0.29838464 0.03164775 0.61806405 0.064110376 -0.19991829 -0.06433249 -0.49859095 -0.5264931 0.16192782 0.27855495 -0.39453328 -0.17178585 0.2863235 -0.8591631 0.6127909 -0.0003703758 0.15992637 -0.12116597 -0.34538502 -0.2812699 -0.54269576 0.72103333 0.4564831 0.43121585 0.061181966 -0.06180072 0.059593912 -0.054522347 -0.23047747 -0.24602652 -0.052496262 -0.44064033 -0.23646693 -0.12371508 0.43404466 0.27647543 -0.40454638 0.023261653 -0.33110124 0.2682248 0.28926545 0.0713339 -0.45898888 0.19535789 0.37191927 0.17546055 0.40858775 -0.13522753 -0.5161141 -0.052288175 -0.001606157 -0.21870065 -0.3088894 -0.44985482 0.09957352 -0.07361727 0.51303107 0.19851342 -0.40295324 -0.08941084 -0.107223146 0.10707119 0.070090026 0.16761376 0.18241772 0.106962845 -0.1921837 -0.59981763 -0.03349071 -0.3355122 -0.23508745 -0.089726724 -0.2553203 0.18184361 0.40843397 0.10435806 0.33906057 0.38922405 0.0378546 -0.27279243 0.1730006 -0.30676556 -0.39077073 0.3093327 -0.029117182 0.42881775 -0.29322663 -0.011906148 -0.5780087 -0.7801659 0.09577666 0.6285022 0.36850834 0.34793043 0.07912204 0.07259751 0.23307748 -0.6549958 0.43176422 -0.4665725 -0.32081366 0.05174558 0.37270644 0.18625435 0.3944026 0.3049799 0.2890888 -0.35767317 0.3970764 0.037801858 0.28457102 -0.4030782 -0.30456856 0.14444175 0.38786665 -0.13423955 0.42485532 0.505542 -0.747843 0.5962934 -0.38740444 -0.106059834 0.120312795 -0.083036155 -0.29333144 -0.08505763 -0.63495004 -0.5243239 -0.13322781 0.4088248 -0.1099873 0.022586288 0.057826236 -0.24831577 0.03914634 0.27016786 0.14547405 -0.65288424 0.54298925 -0.14937223 0.3351506 0.08906689 -0.29057646 -0.37984064 0.026892528 -0.29853663 -0.2502833 -0.30605766 0.3160264 0.005498387 -0.02532949 0.2920118 0.10497566 -0.5418989 -0.5473798 0.36550027 -0.13374954 0.031333122 0.518206 -0.7801484 0.34304535 0.24807344 -0.04849029 0.26721132 0.099969804 0.25933784 0.33089653 0.8577272 0.35804737 0.010706968 -0.68037987 -0.258613 0.13795881 0.53573686 0.11255545 0.035494566 -0.3549164 0.12591574
f -0.25015333 0.014106356 -0.31752467 0.4853458 -0.26081866 0.35493752 0.62982404 0.02598758 -0.24118184 -0.20772466 -0.81875503 -0.7070671 -0.47216654 -0.24613282 0.52676916 0.6586525 -0.27173916 0.3919855 -0.22475407 -0.40295976 0.0851955 0.34739777 -0.2006277 0.24508733 -0.39910978 -0.15393485 0.6813431 0.13603267 0.17344512 -0.07601905 -0.104249604 0.40313327 0.63741827 -0.5265202 0.091477916 0.17198195 1.4253125 -0.4319969 -0.30588531 0.4412927 -0.25865817 0.6230456 -0.16470653 -0.8604755 0.5203945 -0.71495444 -0.098476455 -0.2756928 0.22112949 0.24463417 -1.2598014 1.1548337 -0.2694762 0.76721746 -0.19740568 -0.3510793 0.124172434 -0.21580993 -0.30902082 -0.5251689 -0.44116738 -0.65932596 -0.42261636 -0.5057093 0.26028538 -0.0669815 -0.47779158 0.39220017 -0.2615594 -0.83916646 0.51878667 -0.010583451 -0.10005827 -0.44141924 0.14554946 -0.17332694 0.20841122 0.19801089 -0.5772323 0.44254747 -0.5244217 -0.8814264 -0.22077672 -0.046928175 0.26960808 -0.4015409 0.5162317 0.13985856 0.24496382 0.34793666 -0.1527643 0.63822085 -0.5014986 -0.023874214 -0.029021714 0.1372967 0.0583026 -0.0356142 0.23208652 -0.4319021 0.083687544 0.26328495 0.3586567 -0.1355347 -0.15403526 0.24866283 0.27774087 -0.5076585 -0.41701466 -0.19295396 0.30862188 0.11145901 -0.3517663 -0.43383926 -0.49853587 -0.068489395 0.011781912 -0.08252475 0.54062283 -0.08689979 0.18834916 0.1590829 0.084159896 0.19146672 0.3246974 -0.06000946 -0.18000615 0.020298356 -0.6829656 1.1010554 0.53557444 0.34398657 -0.10486919 -0.0028294658 -0.37553656 -0.057332646 -0.0877357 -0.57617617 0.16169116 -0.3938558 0.25929144 0.42773697 0.0010333997 -0.3186261 0.79438967 0.27373493 -0.07967754 0.09882986 -0.6486352 -0.24438767 0.487919 0.45287624 -0.39877743 -0.28870916 -0.1855815 0.24301754 0.3637416 -0.5820458 0.07398619 -0.18967095 0.56350505 -0.014162004 -0.1437923 1.0785584 -0.30615115 0.3266928 0.62581736 1.0541685 0.08037657 0.3516918 -0.38944837 -0.36088783 -0.0062502045 0.3713383 0.12625046 -0.31578577 0.10313892 -0.52695495 -0.07367196 -0.622724 -0.47258526 0.5242655 0.14108106 0.06299484 -0.029824365 -0.18571842 0.104035534 0.06636623 0.076393254 -0.14316297 0.14523907 0.279307 0.020789081 -0.766913 -0.3108415 -0.19434676 -0.027185254 -0.31111735 1.2536083 0.8512845
e -0.42151508 0.4043573 0.7589321 0.31399235 -0.6275369 0.118553005 -0.4008078 0.5599772 -0.7337198 -0.11173107 -0.44539478 -0.3294275 -0.9672744 -0.111420706 -0.3175761 0.1178717 -0.64997643 -0.32225108 0.056859486 0.48801306 -0.48728594 -0.190267 -0.2617684 0.08981754 -0.06514851 0.71945703 -0.22810692 0.8700831 0.44748256 0.1318011 0.3780541 -0.06705632 0.48361662 0.14039235 -0.36793467 0.052826535 0.6431403 -0.007377648 0.4753117 0.10604979 -0.5099055 0.0716213 0.6822831 -1.007609 0.49814138 -0.48976463 0.1610214 1.2473664 -0.13156103 -0.555989 0.05904583 -0.13679826 -0.06687 0.7694867 -0.12195019 -0.90138257 0.060165066 -0.08891286 -0.68905294 0.17097226 -0.38493842 -0.36732286 -0.029665655 -0.29386935 0.18718944 -0.8771851 -0.07453383 0.5867275 -0.6225093 -0.50026584 0.70128155 0.20190698 -0.43082702 0.19277744 -0.0695834 -0.4964487 0.289999 0.34438026 0.54204315 -0.008984847 0.40441686 -0.68757254 -0.19045907 -0.119869635 -0.3039299 0.12800875 0.38799283 0.611756 1.0956658 0.080426574 0.40687838 -0.42723727 0.092418216 -0.40243962 0.4777931 -0.15379226 0.3425739 0.23371945 -0.05115872 -0.72769034 -0.16951783 -0.8783437 -0.14086014 0.10322487 -0.09375282 -0.2935811 0.7247791 0.039408095 -0.278916 -0.16955571 0.4586162 0.26643148 0.017356444 -0.085152015 0.105917744 0.45818755 0.30562487 -0.14289731 0.41637617 0.65055126 -1.0308626 1.2386206 0.02584273 0.4688075 -0.27537128 0.37026975 0.029358579 -0.014602943 -0.8234439 0.07709368 0.06275163 0.7839644 -0.44049615 -0.17952949 -0.43484545 -0.21707682 0.5832405 0.6786094 0.6524222 0.03407346 -0.12176794 0.08047474 -0.27693406 0.27953154 0.6508828 0.21545273 -0.109193124 0.6008348 -0.5472277 -0.6854185 -0.5941728 0.11534587 0.2910689 -0.5024351 0.32025367 -0.26666465 0.23266234 0.26455125 0.7839426 1.1099879 0.18942992 0.94851416 -0.3885758 -0.6766424 0.01352934 -1.2610816 -0.18784356 0.5110071 -0.23033209 -0.05848539 -0.23233868 0.51090765 0.36647546 -0.07565754 0.3310786 0.11711717 -0.57804286 0.5538705 -0.21653324 -0.26232293 0.0031463616 0.1281677 -0.4569008 0.22647664 0.20410573 0.11384579 -0.542997 -0.3753107 -0.43179795 1.041343 -0.3556306 0.16041543 -0.0099876365 -0.012413321 0.046701103 0.2019242 -0.05351734 0.07060611 0.07755891 0.57277507
find 0.008028084 0.9271718 -0.16221452 -0.025497036 -0.045549236 0.3146363 0.6634647 -0.10524051 0.3050672 0.210448 -0.36434996 -0.41680026 0.018157834 0.36434495 -0.56450105 -0.017452683 0.20191395 0.36624697 -0.01756146 0.2998196 -0.22646326 -0.47649196 -0.23848878 -0.1293439 -0.2547595 0.2993193 -0.1801111 -0.60859287 0.3014811 0.081645764 -0.37513062 -0.2529579 0.24151254 0.47256875 -0.33772695 0.40827817 -0.10121765 -0.16318542 -0.33581352 0.53086275 0.35161802 0.17775619 -0.030064173 0.68225574 -0.06262071 -0.30529 -0.0804715 -0.50668997 -0.31893548 0.3412112 0.29122835 -0.25326395 -0.017334541 -0.19128008 0.54223025 0.0876698 0.4737589 -0.1300252 -0.3361351 0.39758617 -0.3370042 0.4479316 0.42884102 0.030597871 -0.07018373 -0.27971232 -0.19716047 -0.2868316 -0.14988333 -0.778056 -0.08900276 -0.4494666 0.30830583 -0.33790478 -0.5836672 -0.44715402 -0.0084583685 -0.028243925 -0.87729055 -0.8774486 -0.06612627 0.020417718 0.008896253 -0.1334364 -0.18260162 0.041476045 -0.036098823 -0.13208285 0.27960578 0.1719808 0.5915478 -0.4318894 0.27661282 -0.30228007 -0.18259092 -0.15386789 -0.41089252 0.28974858 -0.13723962 -0.22968955 0.6279077 0.26161146 0.29342514 0.14232287 0.17840487 -0.21893892 -0.034637094 -0.6040867 -0.36597815 0.7161616 0.17342 0.42992434 -0.09932519 0.4439823 0.13898395 0.18209454 0.19009446 -0.6110909 0.3485577 -0.5977333 0.1127879 0.3356403 0.28484243 0.004395871 0.1370296 0.34172657 0.22178242 0.7294798 0.5205623 -0.62207234 -0.7292856 -0.19903785 -0.16581906 -0.3202124 -0.012129172 0.25105602 -0.032277856 0.16450198 -1.0174111 0.3879781 -0.1529962 0.71671665 0.30458295 0.06784963 0.52304924 -0.76099 0.4341335 -0.27336293 -0.8879052 0.6796661 -0.3540671 -0.5053123 -0.22930023 -0.13274595 0.37647888 -0.38689345 -0.1163358 -0.43582883 -0.036837343 -0.2970091 -0.5741178 -0.17028439 0.26231372 0.59186625 -0.12542297 -0.702613 -0.55781025 -0.1704574 0.5228597 0.2076298 0.043664727 -0.02482534 0.22622323 -0.22658879 0.23614696 -0.11295097 0.0055436874 0.03849672 0.04163271 0.21510254 -0.6497323 -0.37222552 -0.43859187 -0.440413 0.35610524 0.010662482 -0.34154603 -0.20904599 -0.23800245 0.09481813 -0.3046237 0.13948478 -0.27560177 -0.2807461 -0.05692122 0.32089245 0.22836559 0.37183407 0.07555574 -0.009711966
give -0.5149086 -0.55685866 -0.26083767 -0.22392824 0.46187606 -0.17234491 -0.13016708 0.21293005 -0.18943626 -0.36405852 0.15003023 0.04037194 -0.53783715 -0.16164555 0.1249567 0.34338847 -0.72817475 -0.24352896 -0.011547333 -0.64833593 -0.076295264 0.09327716 -0.5479121 0.46185923 0.20394875 -0.4415764 -0.30197874 -0.08469605 -0.30048424 -0.20464605 -0.10062285 -0.25365356 0.15847248 0.1993302 0.31802133 -0.41282856 0.767882 0.18317308 -0.045282785 0.13914111 0.43808603 -0.116103955 -0.9039175 0.23447458 0.070300534 0.5901523 -0.081323765 -0.25852308 -0.1555682 0.299741 -0.28369454 0.45636413 -0.16447666 0.43188915 -0.033016726 0.5701382 -0.2810797 0.21606131 -0.2975212 -0.26201907 -0.68198293 0.20033577 0.33483756 0.14267525 -0.09524358 0.05954264 -0.451494 0.42767748 -0.37820852 -0.42756212 0.039808646 0.7247781 0.39360347 0.56934553 0.054001525 -0.238782 -0.7208635 -0.47843564 -0.16817364 -0.33072126 -0.6154849 -0.13400863 -0.15086594 0.39309222 0.23647156 -0.13523358 0.26684204 -0.005845326 0.75497836 0.35463622 -0.3274115 0.8053674 -0.6557414 0.002430112 -0.4209924 -0.06849703 -0.11375383 -0.15423071 0.21924761 0.43716824 0.47799906 -0.14482933 -0.23936374 -0.35737047 -0.6173753 -0.035658736 0.1775391 -0.28290358 -0.10676828 0.109628 -0.19424407 -0.20391671 0.25944313 0.6676654 0.015716307 0.5182172 0.41476238 0.11906257 -0.29554635 -0.04213666 0.074219055 0.48617056 -0.84755456 -0.22314309 -0.13548759 -0.0041335933 -0.49296373 0.54169315 -0.0058697606 0.08103545 -0.11831115 -0.45050874 0.34383443 0.059641086 0.011903448 -0.23519242 -0.012231128 0.057985518 0.19035639 0.03829371 0.4010938 0.6058568 -0.314578 -0.006490305 -0.06321153 -0.16506673 0.2353713 0.33483303 -0.49702522 -0.7495419 -0.4971703 0.15307713 0.0047134575 -0.13507825 -0.12973183 -0.10955252 0.8720145 0.09133406 -0.2306214 0.19373472 -0.09503285 0.51169276 0.45536345 -0.54113716 0.011382666 0.09643646 -0.5802488 0.26100916 0.12928115 0.54757214 -0.58601904 0.30444482 0.71057343 0.9922006 0.41763914 -0.18608674 -0.21299894 -0.513355 0.18928047 -0.11818887 -0.10572829 0.6184946 -0.18531764 0.3975616 -0.20557573 0.37223884 0.044292193 -0.052502308 -0.12689829 0.18325831 -0.18842155 -0.1555608 -0.388383 -0.06528442 0.16949943 -0.014516477 0.5787584 0.60560584 0.17073953 -0.4094276
cell -0.117907 0.4090768 0.15122391 0.15547664 -0.39956278 -0.2629352 0.17014045 0.33035597 -0.19302419 -0.011475604 -0.3254882 -0.6843026 0.028363286 -0.060775824 0.059440866 0.004858663 0.011784589 0.53131026 0.014473205 0.19310166 0.3558372 -0.00015145133 0.20037507 -0.4278362 0.15507978 -0.11549357 0.7076473 0.0074254815 0.10119575 -0.3134841 0.13635191 0.28306416 -0.15177871 -0.3372214 -0.58940506 -0.20750925 -0.103928685 0.597763 0.50900614 0.39623234 -0.4907712 0.046440426 0.3243984 -0.14586823 -0.05346705 0.26021123 -0.07881142 0.43927428 -0.16973011 0.051871408 0.36523542 -0.043437198 -0.5405291 0.5680912 0.36774364 0.3950316 0.12305741 0.6183861 0.4067176 -0.11029387 -0.015538826 0.008037693 0.4433614 0.3883027 -0.26343068 0.2538109 -0.41814667 -0.44246098 0.014855717 -0.6480614 0.21727046 -0.72272885 -0.012132006 0.08382281 0.5359714 -0.62535816 -0.072606385 -0.3016432 -0.5136677 -0.9211189 -0.42543995 -0.13449031 -0.2895115 0.7174076 0.52570176 0.19046496 -0.5657158 0.30468717 -0.18178864 0.4015188 0.2035291 0.19714405 0.07742436 0.02772475 -0.5419426 0.32622668 -0.37564108 0.59544706 -0.28628188 0.090991296 0.25914466 -0.09042145 -0.4415146 -0.48209184 -0.64190197 -0.06424102 -0.4208076 1.0762932 0.32907167 -0.15457411 0.39001063 0.46941197 0.29738638 0.0052347733 -0.67338175 0.25266528 0.28614417 -0.31381258 -0.15729727 0.49100935 -0.12574652 -0.09145492 -0.24217929 0.426036 -0.43755674 -0.19961752 -0.17709875 0.026681775 0.3370624 0.6042359 0.29088572 -0.2707064 0.013631966 0.42521808 0.3488258 0.7866228 0.2517138 0.1519602 -0.09307945 -0.27984163 -0.2624954 0.71466684 0.14220048 -0.09197932 0.29436302 -0.34900832 -0.30652386 -0.1654134 0.34104335 -0.09544539 0.3439018 0.10060509 0.22477287 -0.6245219 0.2513273 -0.3760645 -0.29237306 0.63994235 -0.16837671 -0.19119926 -0.44561186 -0.00836178 0.01755755 0.85790503 0.25316355 -0.55703294 -0.86974967 -0.40543032 0.43044668 -0.28103754 0.07435013 0.3408299 0.01774366 -0.6270914 -0.44726482 0.216323 0.029844351 0.93583065 -0.32982534 -0.9165671 0.17826422 -0.093810804 0.24966247 0.0035549658 -0.41385102 -0.17065929 -0.406713 -0.34733498 0.22542918 0.067892976 0.45937124 0.0013796503 0.9058575 0.37422416 0.4547473 -0.21618703 0.44352356 0.6868662 -0.31937364 0.2047264
rate -0.22280845 -0.1897071 -0.17337409 -0.20027143 -0.5195172 0.4479328 -0.009873208 -0.30290487 0.3215294 -0.17726232 0.07984715 -0.36994487 -0.6124887 0.4911285 -0.2595678 1.1350639 -0.08121328 -0.43766734 0.19891131 -0.43779674 -0.25528303 -0.22763854 -0.525284 0.0051111155 -0.0039616125 0.043928415 0.23348194 0.1428605 0.0011905599 -0.29609323 0.057586648 -0.26460835 -0.26649868 -0.24229784 0.12906504 0.4248879 0.6245853 0.64246 -0.35879877 0.7398658 -0.10361692 0.5859553 -0.21999465 0.14199014 0.041800793 0.30589852 0.3941242 -0.25271967 -0.15811841 0.1979982 0.1024998 0.23406358 0.20704783 0.39399698 -0.44851303 0.18014576 -0.23287097 0.03884773 0.33388624 6.1206985e-05 0.0014284085 0.107226714 0.08228283 -0.10390793 0.23744737 0.4482278 -0.006156183 0.26748976 -0.5915859 -0.1565302 -0.100503 0.45962748 0.065938435 -0.07747601 -0.55470514 0.010925632 0.03384775 -0.33354384 -0.47428218 0.11411973 -0.035894424 -0.08574829 -0.19575301 -0.6630413 0.044439655 0.24268095 0.042377234 0.283199 -0.47472265 -0.3699344 0.5680542 -0.10678679 0.46548045 -0.30236045 0.20350981 -0.30558705 -0.1547357 0.5815466 0.23423229 -1.0572991 -0.04259373 -0.05057036 -0.13663517 0.31153268 0.06171252 0.39345625 -0.6118484 0.032860067 -0.4759382 -0.34204423 0.0705182 -0.34352276 -0.2716927 0.07487835 -0.5365946 0.65612215 0.42917463 0.37676775 -0.34005004 0.47579557 -0.066230565 0.33336958 -0.10497135 0.3722036 -0.056795392 -0.090988435 -0.24126261 -0.13650036 0.06790638 0.11708426 0.16622685 0.1854124 -0.025495406 -0.46075827 -0.09484168 -0.38937742 -0.26798755 0.3309551 0.03830328 0.099206105 -0.6019605 0.86119753 -0.07851214 0.45959494 -0.18204434 0.015668865 -0.13068128 0.43249667 0.04317653 0.19477266 0.13836837 -0.6272094 -0.5090457 -0.5320174 -0.16445316 0.066733785 0.34404483 -0.88955075 0.10346844 0.41502357 0.094663754 -0.36702493 0.43235818 -0.29731742 -0.13875477 -0.01461358 -0.22173467 -0.2990153 0.60490537 -0.23898305 0.15378626 0.29054317 0.40648463 0.2996133 -0.4886138 0.40133104 0.46053633 0.7097641 0.26843008 0.47593603 0.0837113 0.0018391025 -0.057435956 -0.15167293 -0.50793123 0.11877952 -0.4215096 -0.42831627 0.071514085 -0.06800119 0.02065489 -7.198192e-05 -0.035802644 0.12518679 -0.60106635 0.22178502 -0.12852426 -0.0052960715 0.21648687 -0.28153124
group -0.14494865 -0.055124182 -0.037714273 -0.49333325 -0.1165023 -0.08238917 0.55638766 -0.13645573 0.4108515 -0.009405153 0.46334088 -0.4481533 0.19804919 0.4898867 0.16580822 -0.17424934 -0.20793155 -0.39667585 -0.48398396 0.24224165 -0.30977848 -0.025591508 0.09102633 0.07142471 0.29331577 0.21690357 0.20076439 0.05030671 0.40100792 0.27331895 -0.1041381 0.22260074 0.40430364 -0.07956045 0.5975256 -0.34311926 0.54414946 -0.14234073 -0.2484539 0.17005853 -0.17162953 0.28619167 -0.010015207 0.045382332 0.03836167 0.014319234 0.31684008 -0.5354689 0.15759586 -0.27847236 -0.37254637 -0.35295996 -0.19374323 -0.17267038 -0.14193179 -0.82951003 -0.14427993 -0.32484263 -0.32371145 0.13462074 -0.32430363 0.020255342 0.71671176 -0.18233696 0.23003025 0.26172414 -0.13829002 0.06558632 0.33278778 -0.292151 -0.10116834 -0.40918252 0.6316321 -0.23071969 -0.1918674 -0.2785542 0.030479826 0.17274481 0.6322382 0.31309158 0.5869728 -0.050241824 -0.23810343 -0.25813568 0.39949772 -0.06700721 0.23119202 -0.012690724 0.44232938 -0.051385317 -0.12853375 -0.08317298 -0.085214384 -0.13946754 0.13169676 -0.4882856 -0.6490086 0.21791029 0.23027015 0.4069289 -0.24272865 -0.24321975 -0.2613336 0.0494171 -0.17526567 0.11087346 0.15810113 -0.4063549 -0.18150984 0.07359625 -0.09693358 0.05781805 0.48962086 -0.15873408 0.5584149 -0.4436235 0.18224393 -0.30355546 0.16124532 0.33514434 -0.4951683 -0.11514215 0.6298349 0.29232007 -0.056741927 0.06545688 -0.1206754 -0.072236784 -0.109864704 0.5752429 0.38201973 0.32668275 0.043077607 -0.49225578 0.62609565 0.034601208 -0.25105694 0.17453338 0.21247551 -0.41149935 0.53402686 1.2854124 0.34485173 -0.40936372 0.6596301 -0.31606954 -0.045125034 0.06850807 -0.3767509 -0.31454352 0.44522125 -0.25543842 -0.18819119 -0.29983264 0.31903598 -0.50762767 -0.39130393 0.082046315 0.15595819 -0.16163571 -0.13195981 0.111212194 0.4350628 -0.19777434 0.4297658 -0.014902678 0.29603043 -0.18622236 0.060387634 -0.15793957 -0.15653053 0.15548363 -0.24341042 0.23413336 -0.29586533 0.29411754 0.36472818 0.0828013 0.19809863 0.13814709 0.15494476 0.034225333 0.30801153 0.37688243 0.20730205 0.35488948 -0.41495585 -0.4921351 -0.6246943 1.0353605 -0.16427879 -0.0886137 -0.33954108 0.24394423 -0.09414855 -0.19811808 0.16895528 -0.25958297 -0.45737624 -0.06730437
method -0.061774645 0.021873064 -0.5592194 0.6176589 -0.039542526 -0.17559612 0.15203457 0.13160145 0.015023598 -0.24531427 -0.11989608 0.07895728 0.3204431 0.04588579 -0.22598393 -0.19176327 -0.5671103 0.4124033 -0.055284984 -0.41014802 -0.57409245 -0.1014697 0.5358061 0.45595863 -0.09798726 -0.33456138 -0.14757831 -0.60337216 -0.46981207 0.0011040168 0.386188 0.2875278 -0.65547365 -0.40118966 0.17393376 -0.41300386 0.73238754 -0.4190446 0.42567232 -0.648463 -0.31337717 -0.0070727277 -0.3323267 0.3777214 0.17470802 0.022051226 -0.11172874 -0.13027081 -0.740515 0.2715981 0.33004057 -0.16486332 0.046131954 0.089199275 -0.2030355 -0.40208876 -0.03140121 0.03333128 0.21334246 0.11203275 0.039357334 0.088798076 0.22169858 -0.23954323 0.9222445 -0.3899353 -0.3917412 -0.16918193 0.45638925 -0.30590716 -0.21852021 0.072241 0.014450463 0.021984717 -0.107791595 -0.5614222 -0.08897886 0.009550898 0.02406598 -0.36067992 -0.17954487 0.037309777 -0.02700444 0.64336264 -0.0057262885 0.031921633 -0.477801 0.052294727 -0.48004684 -0.24375108 0.16974702 -0.114877924 -0.8295779 -0.049163606 0.40263787 -0.42071664 0.23107532 0.43834206 0.32376936 0.019514248 0.036153477 -0.06495855 -0.7406177 -0.5363747 -0.3081193 -0.5054692 0.044203997 0.030043032 0.057322398 0.38263118 -0.14556709 -0.68286246 -0.11515888 -0.08035966 0.16944109 0.36584833 0.05194344 0.006206302 0.088488325 0.055921342 0.097570285 0.06885127 -0.37506622 -0.6916797 0.32230845 -0.17142661 0.3065428 -0.3817142 0.09567916 0.158948 0.24029902 0.3399058 0.08769445 -0.17773215 0.034524895 -0.054312542 0.66347677 -0.36788875 -0.23430046 -0.36014014 -0.0245954 0.9681506 -0.19102196 -0.3313704 0.014228392 0.08752623 0.14803115 -0.61416227 0.78155774 -0.3164614 -0.011647264 0.38973892 -0.2258804 -0.116784185 0.4944754 -0.4059414 0.046761777 0.47109705 0.46598613 -0.4389601 0.007765397 -0.079580024 -0.23685831 -0.5397411 0.08691998 -0.05608819 -0.28227592 -0.1520273 0.25718164 0.25266215 0.057232477 -0.2864231 0.074045956 -0.13469478 0.3070823 0.48520395 -0.44393227 0.07978439 0.108552255 0.022036476 0.2889299 -0.48136443 0.30392516 1.0541791 0.27273804 -0.25670865 0.0044397237 0.111734815 0.40457222 0.24797854 0.01994859 -0.65492773 -0.35405955 0.64256334 -0.011892417 -0.03745751 0.4049742 0.02973835 0.16161011 -0.14650874
follow -0.5048049 0.29841465 0.25007644 0.221601 0.14682631 0.29050234 0.13383478 0.2130858 -0.17022626 0.17865784 0.29834336 -0.04639836 -0.6581443 0.7109665 -0.24293278 -0.21266423 0.027701302 -0.15908861 0.3251739 0.34377024 0.18698615 -0.79386824 -0.25055602 0.005071296 0.46507797 0.0018157226 -0.10034358 0.29703555 0.051849857 0.56872654 -0.14281021 -0.1711086 -0.19898711 0.46988583 -0.23075746 -0.072384305 0.8505956 0.2972789 -0.6508814 -0.04827968 0.062996626 0.18742907 -0.3087175 0.06421333 -0.31405595 0.022164837 0.20620032 0.29994297 -0.093507126 -0.4177419 0.24965262 -0.16538642 0.7084741 0.37044457 -0.14506006 0.43482807 -0.16922364 -0.34646022 -0.12628126 -0.53212726 -0.27431723 -0.32499695 -0.0064421706 -0.30013543 -0.5113252 -0.49971858 -0.1821213 0.07496117 0.35256493 -0.31466922 0.483027 -0.10661768 0.2636737 -0.085151955 0.25300953 -0.21939707 -0.002361165 0.5530407 -0.6374518 -0.46857357 -0.6425592 0.594924 0.31530425 -0.020294264 0.061809886 0.20734033 0.6973043 -0.6371538 0.06865708 -0.38378257 0.33348006 -0.5500987 -0.003942887 -0.64087445 -0.2570157 0.49498475 0.7383632 0.427027 -0.28396538 0.026425427 -0.09222314 -0.39896533 0.18657558 -0.65116286 -0.31733873 0.017911771 0.8626625 0.4779944 0.4036946 -0.45054826 0.35598373 0.2477845 -0.16225737 -0.25702465 -0.069734566 -0.31408152 -0.1690918 -0.10044495 -0.1984541 0.29471627 -0.50415045 -0.30151677 0.27652222 -0.37237316 -0.11696103 0.6428417 -0.007257167 0.04404878 -0.06499614 -0.57031465 -0.012035778 -0.2300975 0.51713777 -0.2890095 -0.3161453 0.48575285 -0.07175095 0.31703618 -0.118221305 0.14119059 0.105437905 0.7456269 0.3781601 0.21708058 0.9304792 0.0029774497 0.29701808 0.056635648 -0.2516564 0.06701661 -0.13007541 0.41008943 -0.01479707 -0.65959287 -0.08228093 -0.4540613 0.14808463 -0.3292948 0.0006007558 -0.37936836 0.63277054 0.44564384 -0.21893086 0.027876072 0.11329849 0.14498897 -0.25988173 -0.213658 0.05411281 0.35931596 0.3362198 0.110345736 -0.27490494 -0.50569093 -0.104243085 0.3347244 0.3802866 -0.011183303 0.09554615 -0.6291095 -0.6438202 0.07331775 -0.20889704 0.30603608 -0.6145617 -0.14547944 -0.19170989 0.004675572 -0.63729817 0.09403772 0.6558821 -0.12164502 -0.43632403 -0.06033662 0.05322872 0.4052828 0.28356028 0.50227994 0.4686309 0.5491443
p -0.08673538 -0.22607206 -0.7779244 -0.7580598 -0.4000875 -0.26537132 0.33105054 -0.23320572 0.54926455 0.34061584 0.14986952 -0.13489631 -0.4464864 -0.2347109 0.45218644 -0.7712033 -0.3319006 0.7287859 0.088249065 0.0069085583 -0.6423823 -0.30440548 -0.009467992 0.6195192 0.37365985 -0.39283407 0.13145764 0.2891332 0.118278414 0.27774414 0.4571975 0.3746719 0.42130977 0.52292424 0.06792079 -0.15085687 0.2936962 1.0666206 0.8740618 0.5269736 -0.037157558 0.55075747 0.12140334 -0.8895293 0.059331596 -0.28153372 0.42416078 -0.14133382 -0.38556018 0.10081718 -0.0910938 -0.13878298 0.22291125 0.21664543 0.2719031 -0.6335196 -0.85987204 0.282259 0.080307305 -0.21782714 0.22630584 -0.028943993 0.088298395 0.22578955 0.6724717 -0.41635752 -0.2451202 0.22386482 -0.3412711 -1.433528 0.5722273 0.14582902 -0.013093172 -0.30130327 0.08673206 -0.51726264 0.38767397 -0.5152948 -0.25084752 -1.0548215 -0.35115087 -0.36536014 -0.8793036 0.10068058 0.08260434 0.6534336 -0.1852305 0.09127199 0.02265028 -0.033409316 0.21177429 0.27994698 -0.31725106 -0.39538983 0.19850406 -0.08360167 0.02215837 -0.724047 0.39963052 -0.8497109 -0.07707167 -0.06616138 -0.41326088 0.0905175 0.2588293 -0.29990172 -0.22393309 -0.9858486 -0.15729825 0.36882618 0.5050278 -0.1069873 -0.021691589 1.005897 0.4186687 -0.2270929 -0.023950625 -0.07216396 0.25832817 -0.10511161 -0.37590456 0.19790222 -0.0570144 0.9184491 -0.0046126973 0.215157 0.12489798 0.13999316 -0.5215433 -0.024705322 -0.35825658 -0.29316393 0.0460914 -0.033430893 -0.22361355 0.4545395 0.10788794 -0.031310227 -0.22033276 -0.629806 -0.57684064 -0.0048044045 -0.34718028 0.87173766 -0.3627601 0.5686918 -0.34117848 0.57281506 -0.16971098 -0.8400752 0.34733272 0.1389219 -0.65885633 -0.3760793 0.34054852 0.5918362 0.2318792 0.28187233 -0.28811976 0.15246624 1.0399398 -0.8089518 0.16776477 0.40273258 -0.3511372 -0.86303186 -0.02690436 -0.23579893 -0.6857491 -0.6587754 0.529367 -0.1742836 -0.044999838 -0.49625966 0.33297837 -0.69391274 0.3211361 -0.11772911 -0.6476223 0.4144162 0.27680412 -0.08706381 0.19237177 0.8522288 -0.055506513 -0.46519765 -0.74387634 0.28532884 -0.25754192 0.0039425096 -0.2352361 0.17384826 0.3636427 0.13957883 -0.4051062 -0.021564808 0.47516048 0.067359656 -0.21340026 -0.02763131
s -0.34354708 -0.06545155 0.06595986 0.07881784 -0.53967196 -0.1606795 -0.38937312 -0.15452616 -0.24802594 -0.09004158 0.28746873 0.72635883 -0.20258625 -0.061283376 0.006341272 -0.24268733 -0.43470085 0.06130911 -0.3349106 0.10377288 -0.3071322 0.2699385 0.2979468 -0.15281227 0.19616002 0.3750392 0.15299469 0.3842368 -0.11052226 -0.171906 0.35799155 0.039252155 -0.16909435 -0.4551733 0.15558013 0.40445554 0.049110357 0.09751145 0.057275992 -0.24605887 -0.32991192 -0.023060523 0.13669504 0.08410872 -0.11934122 0.1893575 -0.38808796 0.4210213 -0.43752468 -0.19893275 0.16629048 0.3653787 -0.4378854 -0.27994317 -0.17758605 -0.46538025 0.09329779 -0.5559571 -0.3610992 -0.3448863 -0.23471797 -0.5320023 0.11114642 -0.1841123 0.0446834 0.33780047 -0.4191418 -0.23664108 -0.5233992 -0.12135099 0.0962932 0.20609117 -0.24298957 -0.21293181 -0.2203302 -0.55697346 -0.08012475 -0.17889382 -0.08959751 -0.46526393 0.28358632 0.36228406 0.3983418 -0.14886941 -0.31639838 0.013724481 -0.15919049 -0.015953917 -0.64502853 -0.005231996 -0.3450726 -0.05118917 0.28247115 -0.13454275 0.118373215 -0.22051606 0.8181348 -0.115067974 0.29206666 0.11107967 0.26381502 -0.5528679 0.032125324 0.11481109 0.028148346 -0.031741556 -0.43777552 0.09719408 -0.7678102 0.2611938 -0.1771986 0.13095202 -0.3184884 -0.19531636 -0.49280336 -0.052555185 -0.018476626 -0.2840094 0.25243443 0.02968621 0.55312735 0.24584387 0.17119963 0.1542277 -0.2157225 0.3793712 0.16433413 0.38956323 0.12831685 0.24403206 0.27820846 0.20315506 0.50951225 -0.41635123 -0.32766822 -0.057375737 -0.30203885 0.17230844 -0.43890056 0.23303892 0.32985067 0.79972315 -0.2244244 -0.32569337 0.10666499 0.33539322 0.2584513 0.08497754 -0.761883 -0.2581717 -0.009472696 0.19814153 -0.2160297 0.10098214 0.04677735 -0.18346585 0.41336638 0.14902407 -0.14273751 0.26738426 -0.22878127 0.0142332595 -0.07771535 -0.44835973 -0.068866804 0.27136105 -0.04443586 -0.5970467 -0.12300689 0.35777524 -0.054486267 0.109204955 -0.092038736 0.5818032 0.05274516 -0.037281867 -0.19074288 -0.4465854 0.26094213 -0.033274934 0.046867892 0.31431618 -0.1579606 -0.12813391 -0.29339153 -0.27629972 -0.32897633 -0.020497348 0.13630837 -0.004734619 0.14924759 -0.04417983 -0.25657117 -0.023085406 -0.110154 0.0061751823 -0.12260693 0.04320596 0.0153998565 -0.053665943
b 0.32106018 0.09076192 0.79972523 -0.37073997 -0.1964134 -0.89076245 0.78292304 -0.28522226 -0.19753562 0.11604237 0.15746137 0.3362993 0.07812895 0.22670674 0.2840244 0.62704027 -0.3311793 0.21361893 0.22959964 -0.31674725 0.35935247 -0.11756768 0.015720299 0.24273859 0.38250244 -0.91440856 0.2958494 0.5739577 -0.12880605 -0.02808508 -0.5307241 -0.058058757 0.16597715 -0.080921635 -0.061250947 -0.10930435 0.07811189 -0.14781646 0.05831642 0.80907416 0.39753577 -0.17870459 -0.17109607 -0.5744272 -0.09790114 -0.9667193 0.6695318 0.110547714 -0.27650112 -0.37755644 0.6751252 0.106417485 0.16438317 0.85020465 -0.36229125 0.09515908 -0.124047875 -0.19020678 -0.16486982 -0.31570813 -0.16759393 -0.49591935 0.23172694 -0.07222352 -0.3153023 0.20698754 -0.5200843 -0.1833785 -0.06334225 -1.2790858 0.59751403 -0.07592482 -0.81550926 0.27697277 0.13187088 -0.5066866 -0.23443449 -0.38923576 -0.20559055 -0.86508113 -0.85184735 -0.21624848 -0.7328571 0.18236841 0.43388376 0.066432185 -0.038556367 -0.12797827 -0.1891832 -0.021299016 0.4951486 -0.27161506 -0.3813228 0.14522329 -0.31712574 0.2630919 -0.3013864 -0.03653116 -0.8735436 -0.55100715 0.039077014 0.26432514 -0.3016721 0.2857517 0.6399153 -0.15558845 0.20186889 0.22439896 0.20469022 0.13999663 0.034826633 -0.59051144 -0.2791613 0.10832854 -0.35969654 -0.31795114 -0.029030932 0.6420454 0.027048592 -0.38917777 -0.2240142 0.6484151 0.19872716 -0.30967012 -0.4852162 -0.20661674 0.37745437 0.88537014 0.39707845 -0.019050302 0.63552284 0.47527233 0.49536708 -0.61020947 -0.16420643 0.31308758 0.1969526 -0.48059526 0.39860564 0.21165499 0.037280887 0.36220634 0.038244855 0.46965092 0.6444222 0.08717215 0.6080424 0.03220619 -0.17180021 -0.112486675 0.38817102 -0.24808364 0.004306458 -0.04856565 -0.1981994 0.26639882 0.28920808 0.5584359 -0.51031506 -0.039747924 -0.043040976 -0.48462182 -0.049287297 -0.39452326 -0.35965762 -0.6278525 0.06632117 -0.50671977 0.37810686 0.09995108 0.23061045 -0.15821083 0.40403047 0.15457465 0.07492863 0.2623211 0.073762506 -0.049577937 0.15968022 0.084161356 0.029409222 0.20429473 -0.22443116 -0.20311265 -0.36829725 -0.018993186 -0.36493057 -0.32387978 0.26374432 0.27610973 -0.43126515 -0.11847947 -0.018562675 0.49260145 -0.33318433 -0.2014392 0.1784034 0.15664324 -0.47566733 0.7189197
d -0.07129621 -0.6747828 0.5556567 0.28197417 -0.55193186 0.28364813 0.4143504 0.32429424 -0.92423344 0.11785224 0.32747173 -0.40069517 -0.39449155 -0.27411395 0.46833363 -0.11756526 0.40731755 -0.25063306 -0.09220986 -0.0266595 -0.47535786 -0.08352455 -0.68050885 -0.9280827 -0.002025737 -0.29986832 -0.008697899 -0.06675378 -0.72850233 0.12022253 0.32097587 0.83125764 0.3194036 -0.14381665 0.41292056 -0.09876468 0.8104306 -0.15668938 0.58434033 -0.12348801 0.30153844 -0.30423892 -0.22159657 0.024278197 -0.60563606 -0.8980336 0.3173902 0.4346188 0.9014478 -0.955521 1.0047139 -0.43801463 -0.014932107 -0.09071905 0.08108665 -0.09151373 -0.0073904498 0.3074965 -0.20771605 -0.27013943 -0.022207726 0.38859114 -0.058841433 -0.06546576 0.18580122 -0.5795628 -0.033347312 -0.44968492 0.82799923 -0.89095736 -0.10938503 -0.37426054 1.0604452 0.6389939 -0.07164219 -0.919738 0.51881295 0.2583234 0.30087602 -0.25468794 -0.12261315 0.22360416 0.3844343 -0.050072026 -0.29775253 0.13340937 0.591956 0.19968376 -0.25905815 -0.05530639 -0.07991889 -0.1527555 -0.0015410727 0.20606315 -0.49839625 -0.099470444 -0.81329936 0.2709434 -0.61966354 -0.4974833 -0.33163252 -0.7816461 -0.054165307 -0.534736 0.28474864 0.34848845 0.17784193 0.2588211 0.21002422 -0.576221 -0.2650182 0.14487007 -0.2940898 0.09267601 0.28657067 -0.9174648 -0.4933191 0.60417545 -0.41799504 -0.31403354 -0.29177168 -0.11835772 0.7509744 0.9259952 -0.30676657 0.16081966 0.64642406 0.12299252 -0.27462715 -0.32494837 -0.3371383 0.41456985 -0.016835412 -0.48490587 -0.72193974 0.5277126 1.2660757 0.75399315 -0.32093623 0.037828553 0.6120175 0.21396948 0.28829938 -0.31334984 -0.20259476 0.12160889 -0.13292496 0.244757 -0.9339959 0.0903711 0.25115564 0.10811043 0.37789175 -0.089734524 -0.068468 -0.25646642 0.5530852 -0.14510486 0.4771968 -0.17246112 -0.16343555 0.15614183 0.52605635 -0.15421768 0.66754884 0.49178782 0.39690056 0.19881396 -0.5836701 -0.4136034 0.32066116 0.24316183 0.11167703 0.6886697 0.5147324 0.09353455 0.5212111 0.24223031 -0.46055692 0.10591786 -0.6568339 -0.4536516 0.13448454 0.04633458 -0.37332076 -0.014141835 0.6249291 -0.27011272 0.5890302 -0.031011835 0.18624231 -0.5715593 -0.29424238 -0.11870948 -0.7885394 0.513131 -0.51162666 -0.31181902 -0.13857907 -0.18354766
research -0.28454047 -0.40677813 0.0665609 -0.10578039 0.46007398 -0.16986865 -0.17153928 0.4902812 0.16277131 -0.04951902 0.49977347 0.673319 0.13272473 -0.12052968 -0.20446154 0.27238566 -0.47463822 -0.39768317 -0.020752337 -0.37165827 -0.2415983 -0.61953044 0.43826884 -0.2721173 -0.27609605 -0.26496762 2.8055161e-05 -0.27735066 0.26916242 -0.4384117 -0.21839029 0.36717147 -0.09519868 0.04483859 0.22020428 -0.9416539 0.40750733 0.06302776 0.5765366 -0.14638238 -0.34520805 -0.009502683 0.068440154 0.23010112 0.018498125 0.3954928 0.06318733 -0.055266477 -0.16780773 0.59967613 0.1369572 0.48772487 -0.047373123 0.5226097 -0.11109646 0.93300474 0.34042454 -0.08027709 -0.14657035 0.028895183 -0.44927785 0.31898716 -0.32625982 -0.032936007 0.17250624 -0.11128748 0.04281588 -0.12347068 -0.51664007 -0.28347307 0.15229648 0.3609604 -0.07847332 -0.5524935 -0.029718148 0.4541708 0.09646116 0.56903005 -0.43565035 0.19068487 -0.06189711 0.42819402 0.04309468 0.110970914 0.23606275 -0.5879355 -0.10947847 0.0074739517 0.4523217 0.60111433 -0.010261767 -0.582402 0.19360708 0.09004852 -0.3654643 0.051013388 0.0016954101 0.4840807 -0.4531221 0.5654793 0.37799352 -0.11087787 0.6783695 0.5062908 0.13026805 -0.414357 -0.020729734 -0.42799762 -0.59065616 -0.56890404 -0.33734673 -0.59033364 -0.21221325 0.049670313 -0.68611354 -0.17626454 0.17110866 -0.042746406 0.20089652 0.03864695 0.3529515 -0.009503268 0.45975596 0.15868698 0.06872834 0.0606975 -0.39525405 -0.05887258 0.36381757 -0.08348352 0.42852062 0.30067638 0.027691169 -0.14022048 -0.19915998 1.0725561 -0.02136638 -0.309003 0.088893846 -0.27607682 0.11940775 1.2553598 0.32913962 0.13320264 -0.10566481 0.7261785 -0.38336217 0.2705829 -0.031546474 0.07615714 -0.08162598 -0.56579536 -0.20405966 0.11990769 -0.256508 0.25315458 0.30379972 -0.28703547 -0.13052048 0.8102033 0.21773493 -0.33935288 -0.33014053 -0.11067305 -0.4169585 0.109696016 -0.14179204 0.56516385 0.293172 0.31166187 0.19894384 -0.09116017 0.17377225 0.4368986 -0.16296314 -0.2519048 0.11453589 0.5405853 0.19127575 -0.49417597 -0.16247997 0.20583737 0.07209533 -0.74442285 0.09205407 0.19229415 -0.51440525 -0.073536746 0.025215624 -0.29058346 0.47215366 -0.3487433 -1.1383512 -0.059255827 0.24901871 -0.01638324 0.026255134 -0.36959437 0.73635554 0.20593615
effect -0.16080369 -0.008656153 -0.34434733 -0.06935038 -0.30835566 -0.47726634 -0.09956656 0.427438 0.14949724 -0.6252977 -0.41201407 -0.06604041 -0.18368694 -0.30122864 -0.63642746 0.31294024 -0.15878269 -0.09451249 0.6853898 0.5089707 0.010692046 0.0018556266 0.64089197 -0.34273905 0.6437437 0.21178798 -0.6235417 -0.5489151 0.61320645 -1.003474 -0.03645464 0.34730887 -0.089080654 0.79256666 0.49554315 -0.41483486 0.02472954 0.57386625 -0.65584266 0.21185425 0.10683275 -0.2036208 0.4151265 0.39799118 -0.2771379 0.037207156 0.15733147 0.16514617 0.17988205 0.043253925 -0.14413425 -0.03146134 -0.35462463 -0.18787506 0.013792548 -0.27326754 0.5299349 -0.47276413 -0.6537809 0.30189192 -0.031828336 0.088832244 0.10464835 0.28153723 0.3422635 -0.027965529 0.44282207 -0.26776662 0.33443895 -0.43367687 -0.08737996 -0.34781626 -0.3022393 -0.6825736 -0.59149325 0.28764617 0.40795788 0.33452246 -0.14950608 -0.14487955 0.21741383 0.6460853 -0.5191329 -0.042417806 -0.1074657 -0.05953379 -0.123243496 0.027067387 -0.40929914 -0.57352006 0.18285796 -0.23531674 -0.108935796 -0.8007708 0.7387285 -0.4474361 0.2564678 0.54359335 -0.00406595 0.15634407 0.42669016 -0.3050362 -0.30826145 -0.09153811 -0.40300515 -0.2679257 0.06014595 0.40239188 -0.2515168 0.16716997 0.15027383 0.19408847 -0.17651482 -0.40739077 0.18234503 0.31697923 0.2750869 0.16490872 0.20620863 0.34561878 0.34181446 -0.47385186 -0.3777135 -0.14140272 0.1385323 0.5166717 0.07348006 0.6278792 0.4486702 -0.28472936 0.0689551 0.013993078 -0.22025687 0.35893908 0.03715278 0.05725791 0.43415374 0.63279957 -0.04447901 0.5264276 0.509725 0.8476901 0.36261183 0.06629031 0.19431354 0.25942537 -0.38789245 -0.087730706 0.7366574 0.01709838 0.021819497 -0.73499185 -0.29953608 0.3918851 0.33779916 0.18510084 0.2931168 0.41549954 -0.041383278 -0.24235484 -0.45265007 0.23193206 0.17875563 -0.032441396 0.013947634 -0.3635858 0.19727358 -0.13562703 -0.11222952 -0.48768705 -0.2732093 -0.6494667 0.23792787 -0.42048198 0.056390814 -0.07468118 0.4694464 0.08873512 -0.3401991 -0.288134 -0.2390091 0.37846032 -0.009149415 0.26331085 -0.6590218 0.084760964 0.10503815 -0.22820434 -0.2527389 -0.2635083 0.602824 0.19817157 -0.43070248 -0.08217824 -0.06311183 -0.3622572 0.5726763 -0.34978133 -0.3937527 0.3774087
analysis 0.9085065 -0.08605755 0.35737553 0.18181475 -0.13052495 0.14837334 0.31403363 -0.04984833 0.18912917 -0.06561882 0.2100276 0.11304528 0.075328 -0.35953134 -0.22194111 -0.14886925 -0.28985885 -0.17148715 -0.45372945 0.14137426 0.45258036 -0.65918154 0.3523779 -0.18202817 -0.52869344 0.2805724 -0.08111793 0.21811347 0.16616534 0.39461666 -0.20595321 0.024903568 0.010857698 0.19097124 -0.18093298 -0.13190432 0.31272477 -0.23766115 0.2540168 -0.05078718 -0.135531 0.31255785 -0.30411413 0.42235932 0.028467827 0.39582902 0.045447294 -0.12038923 0.04119643 0.02589396 -0.21796452 -0.36805856 0.17806959 0.18637937 -0.38998988 -0.07181779 -0.24683101 -0.43597156 0.022593435 -0.15926717 -0.05786847 -0.3356868 0.14419802 0.49711353 0.4228365 0.28476036 -0.6057823 0.23353995 0.085921414 -0.41524887 -0.43190345 -0.417595 0.078113385 0.43751672 -0.5048731 -0.6363848 -0.40336046 -0.42854497 0.095942445 0.053956036 0.23245552 0.08675172 -0.14013082 0.37174466 -0.25154054 -0.6678757 0.0013088803 -0.05494222 -0.006744019 -0.33675316 0.46512386 -0.6853572 -0.1045426 -0.13811177 -0.51361287 -0.17681143 -0.04303697 0.40747407 0.4423043 0.0072399317 0.027904602 -0.040293593 0.4321462 -0.41985092 -0.24632822 0.1584362 0.27349442 -0.38869432 -0.615925 -0.63399273 -0.13957849 0.37056747 -0.6507938 -0.1377952 0.34129888 -0.85753036 0.536345 -0.43844587 0.6827068 0.18752672 -0.1045092 0.12679318 0.10602459 -0.31257513 0.06373356 -0.07064086 0.29842237 -0.20321628 0.32213742 0.7071203 -0.027043814 0.37540907 0.0731511 -0.1131583 0.33165103 0.37749264 0.1458737 -0.111719064 0.085898496 -0.024786282 -0.5474687 0.78213423 0.15723746 0.43873867 -0.6256079 -0.019209368 0.031953473 -0.48577616 0.4349353 0.09887865 0.30963007 0.10578517 0.659492 -0.15795983 0.17373575 0.2801923 0.5616425 0.026476692 -0.33694467 -0.26272306 -0.3809781 0.038188085 0.07947151 0.41906193 0.53337497 0.57654554 0.06814721 -0.29089978 0.12176403 0.15211852 -0.061311632 0.4693185 0.38496122 0.40754095 0.6055858 0.3400229 0.45509148 -0.24428768 0.70383245 0.1234148 -0.1875756 -0.09790805 -0.43388447 0.21508972 0.0022825203 0.12405943 -0.36038554 -0.09125927 -0.41430318 0.55695117 0.10576741 0.13838115 0.33782813 -0.7188915 0.17035927 0.19832876 0.0073960586 0.04276577 0.46035627 0.503849
